tree
version=v4
num_class=1
num_tree_per_iteration=1
label_index=0
max_feature_idx=29
objective=binary sigmoid:1
feature_names=url_length host_length path_length query_length dot_count hyphen_count slash_count question_count equals_count at_count digit_count is_https is_ip_host suspicious_tld reg_domain_length reg_domain_hyphens brand_in_subdomain brand_typo_in_domain phishing_path_words domain_entropy url_entropy subdomain_levels combined_phishing_pattern digit_substitution extra_subdomain_count brand_in_reg_domain security_keyword_in_domain security_keyword_count domain_starts_with_brand brand_dash_pattern
feature_infos=[22:79] [7:36] [0:30] [0:30] [1:4] [0:3] [2:7] [0:2] [0:2] [0:1] [0:14] [0:1] [0:1] [0:1] [7:31] [0:3] [0:1] [0:1] [0:1] [1.5612781244591329:4.1638561897747248] [3.6539967386657088:4.8681252198183769] [0:3] [0:1] [0:1] [0:3] [0:1] [0:1] [0:5] [0:1] [0:1]
tree_sizes=964 989 1094 994 886 892 1211 788 790 896 997 889 685 892 998 1307 1115 1207 1221 1002 1210 1429 1530 1644 1315 1753 2079 2177 1953 1634 1540 1756 1865 2181 1645 2730 2299 2075 2061 2510 2505 2616 3149 2310 2169 3025 3483 2835 3485 3453 3160 3261 3035 3162 2950 3481 3498 3061 2843 2419 3173 2527 3499 3500 2748 2977 3499 3517 3510 2970 3064 3516 3512 2855 3506 3534 3511 2752 3515 3515 3515 3520 3536 3171 3512 3534 2964 3538 3518 3518 3438 3537 3533 3533 3538 3217 3547 3429 3549 3214 3537 2789 3546 3542 2888 3565 3543 3457 3560 3539 2129 3561 3237 3126 3576 2688 3473 3464 3577 2465 3585 2702 3355 3567 3581 3025 3587 3590 3591 3573 3594 3570 3589 2589 3362 3470 3030 2810 3588 3610 3601 2722 3613 2265 3602 3044 3602 2483 2710 2721 2382 3158 2496 2491 2713 3031 3071 3503 1820 1714 3071 2382 1718 1603 2625 3301 2857 3639 2750 2272 2514 2404 2174 2306 2195 1723 2408 1957 1957 1618 1848 1851 1961 2071 1613 1961 1508 1617 1502 1501 1727 1392 1389 1394 1281 1285 1164 1280 1164 1059 1163 1048 1056 1050 1049 941 945 939 829 726 833 722 835 721 727 712 608 613 615 496 498 497 494 498 499 494 494 491 493 496 488 495 496 497 489 488 377 494 378 377 375 381 376 382 375 380 380 377 376 381 381 374 377 375 377 379 378 375 381 379 381 380 381 376 380 377 376 375 381 376 378 377 378 377 376 381 377 381 378 382 380 376 381 376 376 376 377 376 375 381 378 376 375 380 377 376 378

Tree=0
num_leaves=8
num_cat=0
split_feature=15 11 13 0 0 0 0
split_gain=321.406 84.183 51.5258 2.84217e-14 1.77636e-15 1.77636e-15 8.88178e-16
threshold=1.0000000180025095e-35 1.0000000180025095e-35 1.0000000180025095e-35 53.500000000000007 48.500000000000007 57.500000000000007 50.500000000000007
decision_type=2 2 2 2 2 2 2
left_child=1 4 -3 -2 -1 -5 -4
right_child=3 2 6 5 -6 -7 -8
leaf_value=0.5843993743186523 0.5843993743186523 0.37141693679725768 0.5843993743186523 0.5843993743186523 0.58439937431865219 0.5843993743186523 0.5843993743186523
leaf_weight=5.3995060771703711 51.412688300013542 40.848437279462814 1.6433279365301126 3.7561781406402579 0.70428340137004841 1.4085668027400968 1.4085668027400968
leaf_count=23 219 174 7 16 3 6 6
internal_value=0.502772 0.410414 0.386223 0.584399 0.584399 0.584399 0.584399
internal_weight=106.582 50.0041 43.9003 56.5774 6.10379 5.16474 3.05189
internal_count=454 213 187 241 26 22 13
is_linear=0
shrinkage=1


Tree=1
num_leaves=8
num_cat=0
split_feature=15 11 26 0 0 0 0
split_gain=289.647 73.8371 44.7906 2.84217e-14 2.84217e-14 1.77636e-15 8.88178e-16
threshold=1.0000000180025095e-35 1.0000000180025095e-35 1.0000000180025095e-35 58.500000000000007 65.000000000000014 41.500000000000007 50.500000000000007
decision_type=2 2 2 2 2 2 2
left_child=1 5 4 -2 -3 -1 -4
right_child=3 2 6 -5 -6 -7 -8
leaf_value=0.077872028088785725 0.077872028088785725 -0.12248937909308098 0.077872028088785697 0.077872028088785725 -0.12248937909308098 0.077872028088785697 0.077872028088785683
leaf_weight=3.6770164966583243 54.235993325710297 40.342609867453575 1.6086947172880166 1.1490676552057255 1.6910075992345799 2.2981353104114532 1.3788811862468717
leaf_count=16 236 167 7 5 7 10 6
internal_value=-0.00129514 -0.0872754 -0.109194 0.077872 -0.122489 0.077872 0.077872
internal_weight=106.381 50.9963 45.0212 55.3851 42.0336 5.97515 2.98758
internal_count=454 213 187 241 174 26 13
is_linear=0
shrinkage=0.05


Tree=2
num_leaves=9
num_cat=0
split_feature=15 11 13 0 0 1 20 0
split_gain=262.642 65.4537 39.4157 2.84217e-14 2.84217e-14 7.10543e-15 7.10543e-15 8.88178e-16
threshold=1.0000000180025095e-35 1.0000000180025095e-35 1.0000000180025095e-35 51.500000000000007 35.500000000000007 21.500000000000004 4.5505254799562023 50.500000000000007
decision_type=2 2 2 2 2 2 2 2
left_child=1 -1 3 4 -3 6 -5 -4
right_child=-2 2 7 5 -6 -7 -8 -9
leaf_value=0.075783938760587644 0.075783938760587644 -0.11413245914325421 0.075783938760587616 -0.1141324591432543 -0.11413245914325426 -0.11413245914325405 -0.11413245914325409 0.075783938760587588
leaf_weight=5.8363084495067588 54.09808985888958 6.8926715254783657 1.5713138133287423 9.1081730872392601 24.616684019565582 0.98466736078262407 1.2308342009782798 1.3468404114246366
leaf_count=26 241 28 7 37 100 4 5 6
internal_value=-0.00118678 -0.0819034 -0.102019 -0.114132 -0.114132 -0.114132 -0.114132 0.0757839
internal_weight=105.686 51.5875 45.7512 42.833 31.5094 11.3237 10.339 2.91815
internal_count=454 213 187 174 128 46 42 13
is_linear=0
shrinkage=0.05


Tree=3
num_leaves=8
num_cat=0
split_feature=15 11 13 1 14 1 1
split_gain=239.367 58.5182 35.0254 2.84217e-14 1.42109e-14 1.77636e-15 1.77636e-15
threshold=1.0000000180025095e-35 1.0000000180025095e-35 1.0000000180025095e-35 19.500000000000004 17.500000000000004 17.500000000000004 11.500000000000002
decision_type=2 2 2 2 2 2 2
left_child=1 5 3 -3 -2 6 -1
right_child=4 2 -4 -5 -6 -7 -8
leaf_value=0.073902131392444267 0.073902131392444267 -0.10721511226982768 0.073902131392444267 -0.10721511226982768 0.073902131392444267 0.073902131392444212 0.073902131392444254
leaf_weight=1.3129372000694264 8.7529146671295148 36.583570227026939 2.844697266817092 6.7194312661886206 43.983396202325821 1.3129372000694273 3.0635201334953308
leaf_count=6 40 147 13 27 201 6 14
internal_value=-0.00109706 -0.0773973 -0.0960504 -0.107215 0.0739021 0.0739021 0.0739021
internal_weight=104.573 51.8371 46.1477 43.303 52.7363 5.68939 4.37646
internal_count=454 213 187 174 241 26 20
is_linear=0
shrinkage=0.05


Tree=4
num_leaves=7
num_cat=0
split_feature=15 11 13 1 0 0
split_gain=219.084 52.6837 31.3716 2.84217e-14 1.77636e-15 8.88178e-16
threshold=1.0000000180025095e-35 1.0000000180025095e-35 1.0000000180025095e-35 15.500000000000002 48.500000000000007 50.500000000000007
decision_type=2 2 2 2 2 2
left_child=1 4 -3 -2 -1 -4
right_child=3 2 5 -5 -6 -7
leaf_value=0.072199409799863945 0.072199409799863945 -0.10139819742737968 0.072199409799863931 0.072199409799863945 0.072199409799863848 0.07219940979986389
leaf_weight=4.897471770644187 0.8517342209815969 43.491728961467743 1.4905348867177957 50.465252593159676 0.63880066573619831 1.2776013314723966
leaf_count=23 4 174 7 237 3 6
internal_value=-0.00102173 -0.0735655 -0.0910103 0.0721994 0.0721994 0.0721994
internal_weight=103.113 51.7961 46.2599 51.317 5.53627 2.76814
internal_count=454 213 187 241 26 13
is_linear=0
shrinkage=0.05


Tree=5
num_leaves=7
num_cat=0
split_feature=15 11 13 0 0 0
split_gain=201.158 53.4124 26.2731 2.84217e-14 1.42109e-14 8.88178e-16
threshold=1.0000000180025095e-35 1.0000000180025095e-35 1.0000000180025095e-35 65.000000000000014 59.500000000000007 43.500000000000007
decision_type=2 2 2 2 2 2
left_child=1 -1 3 -3 -2 -4
right_child=4 2 5 -5 -6 -7
leaf_value=0.070653118162335424 0.070653118162335424 -0.096442029102716487 0.070653118162335368 -0.096442029102716487 0.070653118162335424 0.070653118162335382
leaf_weight=5.9991666078567496 47.993332862854004 42.94147390127182 0.62060344219207708 1.9972778558731068 0.62060344219207664 1.8618103265762327
leaf_count=29 232 172 3 8 3 9
internal_value=-0.00294027 -0.0699122 -0.0876949 -0.096442 0.0706531 0.0706531
internal_weight=102.034 53.4203 47.4212 44.9388 48.6139 2.48241
internal_count=456 221 192 180 235 12
is_linear=0
shrinkage=0.05


Tree=6
num_leaves=10
num_cat=0
split_feature=15 11 13 0 0 0 0 0 1
split_gain=185.314 48.6007 23.8144 2.84217e-14 2.84217e-14 1.42109e-14 1.77636e-15 8.88178e-16 8.88178e-16
threshold=1.0000000180025095e-35 1.0000000180025095e-35 1.0000000180025095e-35 65.000000000000014 29.500000000000004 56.500000000000007 47.500000000000007 25.500000000000004 24.500000000000004
decision_type=2 2 2 2 2 2 2 2 2
left_child=1 6 3 4 7 -2 -1 -3 -5
right_child=5 2 -4 8 -6 -7 -8 -9 -10
leaf_value=0.069244259932971439 0.069244259932971439 -0.092172266758820481 0.069244259932971439 -0.092172266758820481 -0.092172266758820467 0.069244259932971439 0.069244259932971383 -0.09217226675882037 -0.09217226675882037
leaf_weight=4.8163157701492301 45.554319992661476 0.99278771877288707 2.4081578850746146 0.99278771877288707 40.704296469688416 1.6054385900497425 1.0033991187810896 0.99278771877288818 0.99278771877288818
leaf_count=24 227 4 12 4 164 8 5 4 4
internal_value=-0.00282384 -0.0670677 -0.0839164 -0.0921723 -0.0921723 0.0692443 0.0692443 -0.0921723 -0.0921723
internal_weight=100.063 52.9033 47.0836 44.6754 42.6899 47.1598 5.81971 1.98558 1.98558
internal_count=456 221 192 180 172 235 29 8 8
is_linear=0
shrinkage=0.05


Tree=7
num_leaves=6
num_cat=0
split_feature=15 11 13 0 0
split_gain=171.187 44.4092 21.6877 2.84217e-14 1.77636e-15
threshold=1.0000000180025095e-35 1.0000000180025095e-35 1.0000000180025095e-35 60.500000000000007 36.500000000000007
decision_type=2 2 2 2 2
left_child=1 4 3 -3 -1
right_child=-2 2 -4 -5 -6
leaf_value=0.067956803171654881 0.067956803171654881 -0.088458912654809541 0.067956803171654881 -0.088458912654809541 0.067956803171654867
leaf_weight=0.97208239138126273 45.687872394919395 41.285077929496765 2.3329977393150321 2.9489341378211966 4.6659954786300659
leaf_count=5 235 168 12 12 24
internal_value=-0.00272136 -0.0645762 -0.0806225 -0.0884589 0.0679568
internal_weight=97.893 52.2051 46.567 44.234 5.63808
internal_count=456 221 192 180 29
is_linear=0
shrinkage=0.05


Tree=8
num_leaves=6
num_cat=0
split_feature=15 11 13 1 1
split_gain=158.518 40.7272 19.8309 2.84217e-14 3.55271e-15
threshold=1.0000000180025095e-35 1.0000000180025095e-35 1.0000000180025095e-35 10.500000000000002 9.5000000000000018
decision_type=2 2 2 2 2
left_child=1 -1 3 4 -3
right_child=-2 2 -4 -5 -6
leaf_value=0.066777050711839259 0.066777050711839259 -0.085203011036242005 0.066777050711839259 -0.085203011036242005 -0.085203011036241963
leaf_weight=5.4554322510957709 44.207813069224358 3.1519788056612006 2.2574202418327323 37.581285759806633 2.9095188975334167
leaf_count=29 235 13 12 155 12
internal_value=-0.00263058 -0.0623779 -0.0777285 -0.085203 -0.085203
internal_weight=95.5634 51.3556 45.9002 43.6428 6.0615
internal_count=456 221 192 180 25
is_linear=0
shrinkage=0.05


Tree=9
num_leaves=7
num_cat=0
split_feature=15 11 13 0 0 1
split_gain=147.099 37.4692 18.197 2.84217e-14 1.42109e-14 3.55271e-15
threshold=1.0000000180025095e-35 1.0000000180025095e-35 1.0000000180025095e-35 54.500000000000007 33.500000000000007 24.500000000000004
decision_type=2 2 2 2 2 2
left_child=1 -1 3 -3 -2 -5
right_child=4 2 -4 5 -6 -7
leaf_value=0.065693318820664537 0.065693318820664537 -0.082327829704872527 0.065693318820664537 -0.082327829704872554 0.065693318820664537 -0.082327829704872374
leaf_weight=5.2727883607149115 0.90910144150257011 33.625778988003731 2.1818434596061698 8.3468245714902842 41.818666309118271 0.95392280817031938
leaf_count=29 5 141 12 35 230 4
internal_value=-0.0025497 -0.0604259 -0.0751682 -0.0823278 0.0656933 -0.0823278
internal_weight=93.1089 50.3812 45.1084 42.9265 42.7278 9.30075
internal_count=456 221 192 180 235 39
is_linear=0
shrinkage=0.05


Tree=10
num_leaves=8
num_cat=0
split_feature=15 11 13 1 1 20 20
split_gain=126.688 33.7021 16.6444 1.42109e-14 1.42109e-14 8.88178e-16 4.44089e-16
threshold=1.0000000180025095e-35 1.0000000180025095e-35 1.0000000180025095e-35 19.500000000000004 9.5000000000000018 4.5505254799562023 4.2529830473974206
decision_type=2 2 2 2 2 2 2
left_child=1 -1 4 -2 5 -3 -4
right_child=3 2 6 -5 -6 -7 -8
leaf_value=0.064695501077190617 0.064695501077190617 -0.079772966799236983 0.064695501077190562 0.064695501077190617 -0.079772966799237011 -0.079772966799236955 0.064695501077190562
leaf_weight=5.0910139232873908 7.1976403743028632 1.6374900192022317 0.70220881700515692 34.934888646006584 34.38729040324688 1.1696357280015943 1.4044176340103147
leaf_count=29 41 7 4 199 147 5 8
internal_value=0.00259269 -0.0563491 -0.0720291 0.0646955 -0.079773 -0.079773 0.0646955
internal_weight=86.5246 44.3921 39.301 42.1325 37.1944 2.80713 2.10663
internal_count=440 200 171 240 159 12 12
is_linear=0
shrinkage=0.05


Tree=11
num_leaves=7
num_cat=0
split_feature=15 11 13 0 2 20
split_gain=118.072 31.1793 15.3629 1.77636e-15 8.88178e-16 2.22045e-16
threshold=1.0000000180025095e-35 1.0000000180025095e-35 1.0000000180025095e-35 47.500000000000007 18.500000000000004 4.1429608756430438
decision_type=2 2 2 2 2 2
left_child=1 3 -3 4 -1 -6
right_child=-2 2 -4 -5 5 -7
leaf_value=0.063774873761283699 0.063774873761283699 -0.077490153476418633 0.063774873761283699 0.063774873761283643 0.063774873761283601 0.063774873761283601
leaf_weight=2.8787721395492545 40.641489028930664 36.39579664170742 2.0320744514465323 0.84669768810272206 0.50801861286163308 0.67735815048217773
leaf_count=17 240 159 12 5 3 4
internal_value=0.00255267 -0.0548593 -0.07002 0.0637749 0.0637749 0.0637749
internal_weight=83.9802 43.3387 38.4279 4.91085 4.06415 1.18538
internal_count=440 200 171 29 24 7
is_linear=0
shrinkage=0.05


Tree=12
num_leaves=5
num_cat=0
split_feature=15 11 13 0
split_gain=110.204 28.9078 14.2142 7.10543e-15
threshold=1.0000000180025095e-35 1.0000000180025095e-35 1.0000000180025095e-35 45.500000000000007
decision_type=2 2 2 2
left_child=1 -1 -3 -2
right_child=3 2 -4 -5
leaf_value=0.062923805570783031 0.062923805570783031 -0.075440377531507022 0.062923805570783031 0.062923805570783031
leaf_weight=4.7329129576683036 19.74767130613327 35.537182107567787 1.9584467411041249 19.421263515949249
leaf_count=29 121 159 12 119
internal_value=0.00251563 -0.0535158 -0.0682134 0.0629238
internal_weight=81.3975 42.2285 37.4956 39.1689
internal_count=440 200 171 240
is_linear=0
shrinkage=0.05


Tree=13
num_leaves=7
num_cat=0
split_feature=15 11 13 0 0 0
split_gain=102.997 26.8538 13.1795 1.42109e-14 7.10543e-15 2.22045e-16
threshold=1.0000000180025095e-35 1.0000000180025095e-35 1.0000000180025095e-35 60.500000000000007 33.500000000000007 31.500000000000004
decision_type=2 2 2 2 2 2
left_child=1 -1 3 -3 5 -2
right_child=4 2 -4 -5 -6 -7
leaf_value=0.062135647141723718 0.062135647141723739 -0.073591749046849161 0.062135647141723718 -0.073591749046849161 0.062135647141723718 0.062135647141723621
leaf_weight=4.5577380657196036 0.47149014472961315 33.324479341506958 1.8859605789184559 1.3068423271179188 36.619067907333374 0.62865352630615234
leaf_count=29 3 153 12 6 233 4
internal_value=0.00248129 -0.0522993 -0.066582 -0.0735917 0.0621356 0.0621356
internal_weight=78.7942 41.075 36.5173 34.6313 37.7192 1.10014
internal_count=440 200 171 159 240 7
is_linear=0
shrinkage=0.05


Tree=14
num_leaves=8
num_cat=0
split_feature=15 11 13 0 0 1 4
split_gain=96.3768 24.9893 12.2436 1.42109e-14 7.10543e-15 7.10543e-15 8.88178e-16
threshold=1.0000000180025095e-35 1.0000000180025095e-35 1.0000000180025095e-35 53.500000000000007 59.500000000000007 25.500000000000004 2.5000000000000004
decision_type=2 2 2 2 2 2 2
left_child=1 6 3 -3 5 -2 -1
right_child=4 2 -4 -5 -6 -7 -8
leaf_value=0.061404543780412851 0.061404543780412851 -0.071917934904917297 0.061404543780412851 -0.071917934904917297 0.061404543780412851 0.061404543780412851 0.061404543780412837
leaf_weight=0.90739864110946555 22.684966027736664 26.697206497192383 1.814797282218932 6.9921255111694327 0.60493242740631004 13.006047189235685 3.4783614575862885
leaf_count=6 150 126 12 33 4 86 23
internal_value=0.00244942 -0.051194 -0.0651031 -0.0719179 0.0614045 0.0614045 0.0614045
internal_weight=76.1858 39.8899 35.5041 33.6893 36.2959 35.691 4.38576
internal_count=440 200 171 159 240 236 29
is_linear=0
shrinkage=0.05


Tree=15
num_leaves=11
num_cat=0
split_feature=15 11 13 1 20 0 20 0 20 0
split_gain=104.547 21.4264 7.7547 7.10543e-15 1.77636e-15 8.88178e-16 8.88178e-16 4.44089e-16 4.44089e-16 2.22045e-16
threshold=1.0000000180025095e-35 1.0000000180025095e-35 1.0000000180025095e-35 19.500000000000004 4.4834793255026471 41.500000000000007 4.148497278031873 38.500000000000007 4.5861347175474849 52.500000000000007
decision_type=2 2 2 2 2 2 2 2 2 2
left_child=1 5 -3 4 6 7 -2 -1 -6 -4
right_child=3 2 9 -5 8 -7 -8 -9 -10 -11
leaf_value=0.06072531946573026 0.060725319465730287 -0.070396996477305226 0.060725319465730336 0.060725319465730322 0.060725319465730246 0.060725319465730281 0.060725319465730301 0.060725319465730287 0.060725319465730267 0.060725319465730176
leaf_weight=0.87255308032035817 0.87255308032035772 36.630930006504059 0.72712756693363079 30.830208837985992 1.0179785937070849 1.3088296204805372 2.9085102677345276 1.4542551338672636 1.0179785937070844 0.43627654016017914
leaf_count=6 6 178 5 212 7 9 20 10 7 3
internal_value=-0.000792413 -0.0552084 -0.0663607 0.0607253 0.0607253 0.0607253 0.0607253 0.0607253 0.0607253 0.0607253
internal_weight=78.0772 41.43 37.7943 36.6472 5.81702 3.63564 3.78106 2.32681 2.03596 1.1634
internal_count=463 211 186 252 40 25 26 16 14 8
is_linear=0
shrinkage=0.05


Tree=16
num_leaves=9
num_cat=0
split_feature=15 11 13 0 0 3 20 20
split_gain=97.9772 19.988 7.22647 1.42109e-14 1.42109e-14 7.10543e-15 3.55271e-15 3.55271e-15
threshold=1.0000000180025095e-35 1.0000000180025095e-35 1.0000000180025095e-35 44.500000000000007 60.500000000000007 1.0000000180025095e-35 4.4811764135443353 4.1190846378958819
decision_type=2 2 2 2 2 2 2 2
left_child=1 -1 4 -2 5 6 -3 -5
right_child=3 2 -4 7 -6 -7 -8 -9
leaf_value=0.060093405029157089 0.060093405029157089 -0.069010483063377037 0.060093405029157089 0.060093405029156832 -0.069010483063377023 -0.069010483063377023 -0.069010483063376912 0.060093405029157089
leaf_weight=3.4937672317028037 14.673822373151777 13.372353121638294 1.1180055141448964 0.83850413560867565 1.995873600244521 19.160386562347412 0.99793680012226182 19.704847186803818
leaf_count=25 105 67 8 6 10 96 5 141
internal_value=-0.000772968 -0.0541768 -0.0650716 0.0600934 -0.0690105 -0.0690105 -0.0690105 0.0600934
internal_weight=75.3555 40.1383 36.6446 35.2172 35.5266 33.5307 14.3703 20.5434
internal_count=463 211 186 252 178 168 72 147
is_linear=0
shrinkage=0.05


Tree=17
num_leaves=10
num_cat=0
split_feature=19 11 26 6 0 0 1 0 0
split_gain=81.0047 27.1041 6.74157 1.44815 7.10543e-15 7.10543e-15 7.10543e-15 8.88178e-16 8.88178e-16
threshold=3.5375747455704984 1.0000000180025095e-35 1.0000000180025095e-35 4.5000000000000009 61.500000000000007 60.500000000000007 10.500000000000002 50.500000000000007 47.500000000000007
decision_type=2 2 2 2 2 2 2 2 2
left_child=1 7 5 4 -2 6 -3 8 -1
right_child=3 2 -4 -5 -6 -7 -8 -9 -10
leaf_value=0.059504721204725719 0.059504721204725719 -0.067742803777737753 0.059504721204725719 -0.015599048056235838 0.059504721204725719 -0.067742803777737753 -0.067742803777737753 0.059504721204725636 0.059504721204725657
leaf_weight=3.7580670714378348 31.272486701607708 4.4462487548589698 1.0737334489822377 0.6550636887550344 0.53686672449111839 1.9331516325473774 27.644068345427513 0.53686672449111927 0.80530008673667897
leaf_count=28 233 23 8 4 4 10 143 4 6
internal_value=-0.000755233 -0.0481987 -0.0638499 0.0579893 0.0595047 -0.0677428 -0.0677428 0.0595047 0.0595047
internal_weight=72.6619 40.1974 35.0972 32.4644 31.8094 34.0235 32.0903 5.10023 4.56337
internal_count=463 222 184 241 237 176 166 38 34
is_linear=0
shrinkage=0.05


Tree=18
num_leaves=10
num_cat=0
split_feature=19 11 26 2 2 13 21 10 10
split_gain=76.0417 25.3576 6.29962 2.42344 3.54327e-05 1.42109e-14 1.42109e-14 3.55271e-15 1.77636e-15
threshold=3.5375747455704984 1.0000000180025095e-35 1.0000000180025095e-35 23.500000000000004 20.500000000000004 1.0000000180025095e-35 1.0000000180025095e-35 3.5000000000000004 1.0000000180025095e-35
decision_type=2 2 2 2 2 2 2 2 2
left_child=1 8 6 4 5 7 -3 -2 -1
right_child=3 2 -4 -5 -6 -7 -8 -9 -10
leaf_value=0.05895563820503226 0.058955638205032239 -0.066580662377115907 0.05895563820503226 -0.067468177816545918 0.059429243303053617 0.058955638205032246 -0.066580662377115907 0.058955638205032149 0.058955638205032246
leaf_weight=0.90180791914462943 15.97488313913346 7.6676020473241797 1.0306376218795765 0.38375115394592185 0.40011896193027396 13.527118787169458 25.246982350945473 0.90180791914463121 3.9937207847833633
leaf_count=7 124 41 8 2 3 105 135 7 31
internal_value=-0.000738702 -0.0474268 -0.0627692 0.0574061 0.0589618 0.0589556 -0.0665807 0.0589556 0.0589556
internal_weight=70.0284 38.8408 33.9452 31.1877 30.8039 30.4038 32.9146 16.8767 4.89553
internal_count=463 222 184 241 239 236 176 131 38
is_linear=0
shrinkage=0.05


Tree=19
num_leaves=8
num_cat=0
split_feature=15 11 13 19 0 2 0
split_gain=81.1435 16.354 5.89662 3.23838e-05 3.29339e-05 2.23786e-05 7.10543e-15
threshold=1.0000000180025095e-35 1.0000000180025095e-35 1.0000000180025095e-35 3.5124494855594821 45.500000000000007 20.500000000000004 56.500000000000007
decision_type=2 2 2 2 2 2 2
left_child=1 -1 3 -3 -5 6 -2
right_child=5 2 -4 4 -6 -7 -8
leaf_value=0.058442917381441341 0.058442917381441334 -0.065512659895724773 0.058442917381441341 -0.065512659895724787 -0.066061346937124454 0.058777637319092503 0.058442917381441341
leaf_weight=3.0898602679371825 29.168280929327018 31.08381462097168 0.98875528573989768 0.54215955734252819 0.55186697840690613 0.50762543082237144 1.4831329286098469
leaf_count=25 236 172 8 3 3 4 12
internal_value=-0.000723832 -0.0515768 -0.0618265 -0.0655221 -0.0657894 0.0584484 0.0584429
internal_weight=67.4155 36.2565 33.1666 32.1778 1.09403 31.159 30.6514
internal_count=463 211 186 178 6 252 248
is_linear=0
shrinkage=0.05


Tree=20
num_leaves=10
num_cat=0
split_feature=19 11 26 2 27 19 2 19 19
split_gain=58.0097 24.0498 6.82836 3.20317 4.81798e-06 1.08077e-09 6.44782e-10 1.42109e-14 7.10543e-15
threshold=3.5375747455704984 1.0000000180025095e-35 1.0000000180025095e-35 23.500000000000004 4.5000000000000009 3.5124494855594821 16.500000000000004 2.8802082089268839 4.0403237615237382
decision_type=2 2 2 2 2 2 2 2 2
left_child=1 -1 5 4 6 7 8 -3 -2
right_child=3 2 -4 -5 -6 -7 -8 -9 -10
leaf_value=0.057963632038413017 0.057963632038412982 -0.064528961260425122 0.057963632038413017 -0.065284684783210298 0.058123389846149925 -0.064526968885412123 0.057961487761795265 -0.064528961260425219 0.057963632038413017
leaf_weight=5.0961062237620345 23.939847841858878 7.5017688423395255 1.1851409822702397 0.53792926669120689 0.48053388297557731 0.69778634607791801 0.35547283291816612 20.23732990026474 1.5406832769513119
leaf_count=43 202 43 10 3 4 4 3 116 13
internal_value=0.000315761 -0.0423674 -0.0596281 0.0554976 0.0579665 -0.0645289 0.0579636 -0.064529 0.0579636
internal_weight=61.5726 34.7181 29.622 26.8545 26.3165 28.4369 25.836 27.7391 25.4805
internal_count=441 216 173 225 222 163 218 159 215
is_linear=0
shrinkage=0.05


Tree=21
num_leaves=12
num_cat=0
split_feature=15 11 13 19 27 19 2 2 20 1 20
split_gain=64.6551 14.929 7.02166 9.92208e-05 4.05725e-06 8.83851e-10 5.43281e-10 7.10543e-15 7.10543e-15 8.88178e-16 8.88178e-16
threshold=1.0000000180025095e-35 1.0000000180025095e-35 1.0000000180025095e-35 3.6871501186864273 4.5000000000000009 3.5124494855594821 16.500000000000004 4.5000000000000009 4.1716943290382362 13.500000000000002 4.1671457950627051
decision_type=2 2 2 2 2 2 2 2 2 2 2
left_child=1 9 3 5 6 -3 7 -2 10 -1 -9
right_child=4 2 -4 -5 -6 -7 -8 8 -10 -11 -12
leaf_value=0.057515155709024803 0.057515155709024213 -0.063621026919116863 0.057515155709024816 -0.064318705464568526 0.057664805583047068 -0.063619192281648307 0.057513146124513616 0.057515155709024782 0.057515155709024816 0.057515155709024782 0.057515155709024671
leaf_weight=1.8174535036087029 1.0223175957799053 26.753199130296718 1.2494992837309826 0.51918299496173759 0.46064084023237128 0.67298439145088096 0.3407052606344213 4.9979971349239376 19.764806851744652 1.2494992837309835 0.34077253192663182
leaf_count=16 9 159 11 3 4 4 3 44 174 11 3
internal_value=0.000317291 -0.0474249 -0.0584489 -0.0636339 0.0575177 -0.063621 0.0575151 0.0575152 0.0575152 0.0575152 0.0575152
internal_weight=59.1891 32.2618 29.1949 27.9454 26.9272 27.4262 26.4666 26.1259 25.1036 3.06695 5.33877
internal_count=441 204 177 166 237 163 233 230 221 27 47
is_linear=0
shrinkage=0.05


Tree=22
num_leaves=13
num_cat=0
split_feature=15 11 13 19 2 19 27 0 0 0 0 14
split_gain=60.8938 14.021 6.58947 8.18472e-05 3.42877e-06 7.37153e-10 6.21284e-10 7.10543e-15 3.55271e-15 8.88178e-16 4.44089e-16 2.22045e-16
threshold=1.0000000180025095e-35 1.0000000180025095e-35 1.0000000180025095e-35 3.6871501186864273 16.500000000000004 3.5124494855594821 4.5000000000000009 45.500000000000007 40.500000000000007 38.500000000000007 41.500000000000007 23.500000000000004
decision_type=2 2 2 2 2 2 2 2 2 2 2 2
left_child=1 10 3 5 6 -3 7 8 9 -2 -1 -11
right_child=4 2 -4 -5 -6 -7 -8 -9 -10 11 -12 -13
leaf_value=0.057095114662202379 0.057095114662202344 -0.062781440088403959 0.05709511466220249 -0.063426737678352205 0.057235650823013642 -0.06277973325973106 0.057092919071661169 0.05709511466220249 0.05709511466220249 0.057095114662202441 0.057095114662202434 0.057095114662202386
leaf_weight=2.0676884129643471 3.7000740021467298 25.780084177851688 1.1970827654004086 0.50063019990920921 0.4413897916674604 0.64850431680679221 0.3264012336730947 12.297304771840571 7.5089737102389336 0.97943135350942589 0.87060564756393422 0.54412852972745895
leaf_count=19 34 159 11 3 4 4 3 113 69 9 8 5
internal_value=0.00031861 -0.0468336 -0.0576908 -0.0627934 0.0570975 -0.0627814 0.0570951 0.0570951 0.0570951 0.0570951 0.0570951 0.0570951
internal_weight=56.8623 31.0646 28.1263 26.9292 25.7977 26.4286 25.3563 25.0299 12.7326 5.22363 2.93829 1.52356
internal_count=441 204 177 166 237 163 233 230 117 48 27 14
is_linear=0
shrinkage=0.05


Tree=23
num_leaves=14
num_cat=0
split_feature=15 11 13 19 27 2 19 1 2 1 2 1 1
split_gain=57.3853 13.1786 6.18913 6.76948e-05 2.91318e-06 9.09953e-10 6.09717e-10 7.10543e-15 7.10543e-15 3.55271e-15 1.77636e-15 8.88178e-16 2.22045e-16
threshold=1.0000000180025095e-35 1.0000000180025095e-35 1.0000000180025095e-35 3.6871501186864273 4.5000000000000009 16.500000000000004 3.5124494855594821 24.500000000000004 14.500000000000002 25.500000000000004 13.500000000000002 11.500000000000002 9.5000000000000018
decision_type=2 2 2 2 2 2 2 2 2 2 2 2 2
left_child=1 11 3 6 5 9 7 8 -3 -2 -11 12 -1
right_child=4 2 -4 -5 -6 -7 -8 -9 -10 10 -12 -13 -14
leaf_value=0.056701364460737529 0.056701364460738035 -0.062003675354678413 0.05670136446073807 -0.062601569163698759 0.056833715715768285 0.05669864910168633 -0.062002093410515394 -0.062003675354678503 -0.062003675354678503 0.056701364460738084 0.056701364460737883 0.056701364460738049 0.056701364460737938
leaf_weight=0.41687539219856562 14.694857574999341 12.333216488361375 1.1464073285460461 0.48233132064342399 0.42278401553630729 0.31255966424941917 0.62441630661487479 0.46834999322891135 12.020983159542082 8.7543832361698115 0.52109424024820405 1.9801581129431722 0.41687539219856262
leaf_count=4 141 79 11 3 4 3 4 3 77 84 5 19 4
internal_value=0.000319753 -0.0462851 -0.0569882 -0.0620148 0.0567036 0.0567013 -0.0620036 -0.0620037 -0.0620037 0.0567014 0.0567014 0.0567014 0.0567014
internal_weight=54.5953 29.8896 27.0757 25.9293 24.7057 24.2829 25.447 24.8225 24.3542 23.9703 9.27548 2.81391 0.833751
internal_count=441 204 177 166 237 233 163 159 156 230 89 27 8
is_linear=0
shrinkage=0.05


Tree=24
num_leaves=11
num_cat=0
split_feature=15 11 13 19 2 27 19 0 0 0
split_gain=54.1087 12.396 5.81766 5.61285e-05 2.46637e-06 9.12724e-10 5.0219e-10 7.10543e-15 3.55271e-15 2.22045e-16
threshold=1.0000000180025095e-35 1.0000000180025095e-35 1.0000000180025095e-35 3.6871501186864273 16.500000000000004 4.5000000000000009 3.5124494855594821 32.500000000000007 58.500000000000007 57.500000000000007
decision_type=2 2 2 2 2 2 2 2 2 2
left_child=1 -1 3 6 5 8 7 -3 -2 -4
right_child=4 2 9 -5 -6 -7 -8 -9 -10 -11
leaf_value=0.05633195844000119 0.056331958440001245 -0.061282000153765961 0.056331958440001273 -0.061836876962962417 0.056456411550012291 0.056329178934811985 -0.061280536488469331 -0.061282000153766419 0.056331958440001266 0.056331958440001079
leaf_weight=2.6937808021903065 22.448173351585876 1.952691748738302 0.79815727472305187 0.46433700621127982 0.40479380637407203 0.29920698702335258 0.60077884793281455 21.930230408906937 0.49884829670190711 0.29930897802114487
leaf_count=27 225 13 8 3 4 3 4 146 5 3
internal_value=0.000320744 -0.0457755 -0.056336 -0.0612923 0.0563341 0.0563319 -0.061282 -0.061282 0.056332 0.056332
internal_weight=52.3903 28.7393 26.0455 24.948 23.651 23.2462 24.4837 23.8829 22.947 1.09747
internal_count=441 204 177 166 237 233 163 159 230 11
is_linear=0
shrinkage=0.05


Tree=25
num_leaves=15
num_cat=0
split_feature=15 11 13 19 2 2 19 3 1 20 1 1 19 1
split_gain=51.6058 9.93344 6.41892 6.17957e-05 2.77297e-06 8.21093e-10 1.55836e-10 4.65766e-10 1.39008e-10 9.85878e-14 3.55271e-15 3.55271e-15 1.77636e-15 4.44089e-16
threshold=1.0000000180025095e-35 1.0000000180025095e-35 1.0000000180025095e-35 3.6871501186864273 20.500000000000004 15.500000000000002 3.4571270092919519 15.500000000000002 23.500000000000004 4.1311915843276905 28.500000000000004 23.500000000000004 4.0936606896881864 13.500000000000002
decision_type=2 2 2 2 2 2 2 2 2 2 2 2 2 2
left_child=1 13 3 6 5 10 -3 9 -7 -8 11 -2 -13 -1
right_child=4 2 -4 -5 -6 8 7 -9 -10 -11 -12 12 -14 -15
leaf_value=0.055985127692134984 0.055985127692135074 -0.060611381614876329 0.055985127692135178 -0.061127092355099735 0.056140175677826677 0.055982515304689853 -0.060611381614876364 -0.060609470513056235 0.055983972629738081 -0.060611411776654127 0.055985127692135178 0.055985127692135185 0.055985127692134998 0.05598512769213513
leaf_weight=1.1457224786281615 7.9245804771781101 21.807727947831165 1.2411993518471707 0.59558564424514671 0.29193931072950263 0.28633227199315925 0.72211019694805034 0.43321543931961048 0.38184935599565506 0.43326692283153534 3.1507368162274352 10.025071687996384 0.57286123931408006 1.0502456054091451
leaf_count=12 83 151 13 4 3 3 5 3 4 3 33 105 6 11
internal_value=0.000102224 -0.0460117 -0.0548882 -0.0606241 0.0559871 0.0559851 -0.0606113 -0.0606109 0.0559833 -0.0606114 0.0559851 0.0559851 0.0559851 0.0559851
internal_weight=50.0624 27.4291 25.2331 23.9919 22.6334 22.3414 23.3963 1.58859 0.668182 1.15538 21.6733 18.5225 10.5979 2.19597
internal_count=439 202 179 166 237 234 162 11 7 8 227 194 111 23
is_linear=0
shrinkage=0.05


Tree=26
num_leaves=18
num_cat=0
split_feature=15 11 13 19 2 2 19 20 18 20 1 1 19 20 1 2 1
split_gain=48.7056 9.35575 6.04228 5.14603e-05 2.34558e-06 6.93234e-10 1.28686e-10 3.90599e-10 1.16848e-10 1.50102e-13 3.55271e-15 3.55271e-15 3.55271e-15 3.55271e-15 4.44089e-16 4.44089e-16 2.22045e-16
threshold=1.0000000180025095e-35 1.0000000180025095e-35 1.0000000180025095e-35 3.6871501186864273 20.500000000000004 15.500000000000002 3.4571270092919519 4.3112605790924281 1.0000000180025095e-35 4.1311915843276905 27.500000000000004 20.500000000000004 4.1386253932743537 3.9076319663487209 13.500000000000002 19.500000000000004 17.500000000000004
decision_type=2 2 2 2 2 2 2 2 2 2 2 2 2 2 2 2 2
left_child=1 14 3 6 5 10 11 9 -7 -8 12 13 -2 -3 -1 -13 -16
right_child=4 2 -4 -5 -6 8 7 -9 -10 -11 -12 15 -14 -15 16 -17 -18
leaf_value=0.0556592566816176 0.05565925668161778 -0.059987309922655607 0.055659256681617808 -0.060467293572351581 0.055805040463476174 0.055658170295633906 -0.059987309922656898 -0.059985528207019648 0.055656804239304337 -0.059987347892300737 0.055659256681617808 -0.059987309922656877 0.055659256681617447 -0.059987309922656884 0.055659256681617711 -0.059987309922656842 0.055659256681617697
leaf_weight=1.0960640609264403 15.070880837738521 0.83262813091279753 1.187402732670306 0.57256323099136253 0.27932673692703147 0.36529868841171165 0.69385677576064952 0.41626441478729237 0.27392124384641647 0.41631501913070679 5.3889816328883162 1.6652562618255609 0.27401601523161012 17.346419394016266 0.45669335871934869 1.1101708412170408 0.54803203046321869
leaf_count=12 165 6 13 4 3 4 5 3 3 3 59 12 3 125 5 8 6
internal_value=0.000104719 -0.0455617 -0.0543338 -0.0599992 0.0556611 0.0556592 -0.0599873 -0.0599868 0.0556576 -0.0599873 0.0556593 -0.0599873 0.0556593 -0.0599873 0.0556593 -0.0599873 0.0556593
internal_weight=47.9941 26.3417 24.2409 23.0535 21.6524 21.3731 22.4809 1.52644 0.63922 1.11017 20.7339 20.9545 15.3449 18.179 2.10079 2.77543 1.00473
internal_count=439 202 179 166 237 234 162 11 7 8 227 151 168 131 23 20 11
is_linear=0
shrinkage=0.05


Tree=27
num_leaves=19
num_cat=0
split_feature=15 11 13 19 2 2 19 20 1 20 0 0 0 19 0 1 1 0
split_gain=45.989 8.81681 5.69129 4.29378e-05 1.986e-06 5.89072e-10 1.07416e-10 3.26372e-10 9.94235e-11 1.29896e-13 7.10543e-15 3.55271e-15 3.55271e-15 3.55271e-15 1.77636e-15 1.77636e-15 4.44089e-16 2.22045e-16
threshold=1.0000000180025095e-35 1.0000000180025095e-35 1.0000000180025095e-35 3.6871501186864273 20.500000000000004 15.500000000000002 3.4571270092919519 4.3112605790924281 23.500000000000004 4.1311915843276905 46.500000000000007 36.500000000000007 59.500000000000007 3.6794266156727975 60.500000000000007 13.500000000000002 10.500000000000002 46.500000000000007
decision_type=2 2 2 2 2 2 2 2 2 2 2 2 2 2 2 2 2 2
left_child=1 -1 3 6 5 11 10 9 -7 -8 -3 -2 13 -13 15 16 -12 -4
right_child=4 2 17 -5 -6 8 7 -9 -10 -11 14 12 -14 -15 -16 -17 -18 -19
leaf_value=0.055352874246542762 0.055352874246542422 -0.05940581388548738 0.055352874246542887 -0.059853124503936275 0.055490036233374375 0.05535056203780684 -0.059405813885487463 -0.059404152139134941 0.055351850560805861 -0.059405849922079694 -0.059405813885487518 0.055352874246542762 0.055352874246542866 0.055352874246542866 -0.059405813885487407 -0.059405813885487435 -0.059405813885487407 0.055352874246542796
leaf_weight=2.0091136544942882 1.3102915138006306 11.460590392351163 0.2620583027601231 0.55008560419082542 0.26717395335435767 0.26196706295013328 0.66631339490413555 0.39973968267440785 0.34935713559389114 0.39978896081447601 0.7995760738849621 3.7561690062284532 0.26205830276012321 14.500559419393538 1.0661014318466184 5.7302951961755753 1.0661014318466184 0.87352767586708069
leaf_count=23 15 86 3 4 3 3 5 3 4 3 6 43 3 166 8 43 8 10
internal_value=0.000107004 -0.045142 -0.0538171 -0.0594169 0.0553546 0.0553528 -0.0594058 -0.0594054 0.0553513 -0.0594058 -0.0594058 0.0553529 0.0553529 0.0553529 -0.0594058 -0.0594058 -0.0594058 0.0553529
internal_weight=45.9909 25.2833 23.2742 22.1386 20.7076 20.4404 21.5885 1.46584 0.611324 1.0661 20.1227 19.8291 18.5188 18.2567 8.66207 7.59597 1.86568 1.13559
internal_count=439 202 179 166 237 234 162 11 7 8 151 227 212 209 65 57 14 13
is_linear=0
shrinkage=0.05


Tree=28
num_leaves=17
num_cat=0
split_feature=19 11 26 5 13 0 27 2 5 19 0 1 1 19 0 0
split_gain=36.7064 11.1316 5.35285 2.70641 1.22216 6.00515e-06 1.3025e-06 1.0793e-09 2.75501e-10 4.26326e-14 5.75096e-14 7.10543e-15 3.55271e-15 3.55271e-15 2.22045e-16 2.22045e-16
threshold=3.4813449767064717 1.0000000180025095e-35 1.0000000180025095e-35 1.0000000180025095e-35 1.0000000180025095e-35 56.500000000000007 4.5000000000000009 16.500000000000004 1.5000000000000002 3.4571270092919519 38.500000000000007 18.500000000000004 32.500000000000007 4.0082531931423269 57.500000000000007 45.500000000000007
decision_type=2 2 2 2 2 2 2 2 2 2 2 2 2 2 2 2
left_child=1 8 9 4 5 -2 7 11 -1 -3 -11 15 13 -13 -4 -5
right_child=3 2 14 6 -6 -7 -8 -9 -10 10 -12 12 -14 -15 -16 -17
leaf_value=0.055064628399526694 -0.059003900022508632 -0.058863329082858608 0.055064628399526798 0.055064628399526284 0.055064628399526631 -0.059280686715814379 0.05516347287623781 0.055061759630581519 0.055062886527499792 -0.058863329082858643 -0.058863351623058252 0.055064628501074013 0.055064628399526631 0.055064628399526722 0.055064628399526576 0.055064628399526638
leaf_weight=2.4219776615500481 0.38780239224434143 19.313195422291763 0.83516471087932476 1.1692305952310658 0.33406588435173035 0.39613652229309082 0.33907498419284721 0.33391129970550437 0.25047903507947911 0.63950978219509014 0.5116087943315506 14.531866192817686 0.58461529761552888 1.4197800084948546 0.25054941326379776 0.33406588435173024
leaf_count=29 3 151 10 14 4 3 4 4 3 5 4 174 7 17 3 4
internal_value=0.000109099 -0.0411872 -0.0531235 0.0505514 -0.0250177 -0.0591438 0.0550664 0.0550646 0.0550645 -0.0588633 -0.0588633 0.0550646 0.0550646 0.0550646 0.0550646 0.0550646
internal_weight=44.053 24.2225 21.55 19.8305 1.118 0.783939 18.7125 18.3735 2.67246 20.4643 1.15112 18.0396 16.5363 15.9516 1.08571 1.5033
internal_count=439 205 173 234 10 6 224 220 32 160 9 216 198 191 13 18
is_linear=0
shrinkage=0.05


Tree=29
num_leaves=14
num_cat=0
split_feature=19 11 1 5 13 14 0 27 2 5 19 20 0
split_gain=34.6861 10.5028 4.23663 2.56337 1.15326 0.240753 5.02367e-06 1.10485e-06 9.17346e-10 2.34522e-10 3.55271e-14 8.19345e-14 2.22045e-16
threshold=3.4813449767064717 1.0000000180025095e-35 26.500000000000004 1.0000000180025095e-35 1.0000000180025095e-35 18.500000000000004 56.500000000000007 4.5000000000000009 16.500000000000004 1.5000000000000002 3.4571270092919519 4.2781389507684739 57.500000000000007
decision_type=2 2 2 2 2 2 2 2 2 2 2 2 2
left_child=1 9 5 4 6 10 -2 8 -5 -1 -3 -12 -4
right_child=3 2 12 7 -6 -7 -8 -9 -10 -11 11 -13 -14
leaf_value=0.054793288214886195 -0.058488066210107117 -0.058356662395870854 0.054793288214886285 0.054793288284452617 0.054793288214886118 -0.0241258198404889 -0.058746509120999782 0.054886400425604179 0.054790582978233075 0.054791644376792986 -0.058356661974404971 -0.058356690843828746 0.054793288214886063
leaf_weight=2.3149766102433236 0.37205985188484436 18.158653646707545 0.6386142373085012 17.242584623396404 0.3193071186542511 0.52773437649011512 0.38015605509281158 0.32412508130073447 0.31915849447250266 0.23941268026828755 0.73616162687539943 0.36808174848556519 0.23948033899068832
leaf_count=29 3 148 8 216 4 5 3 4 4 3 6 3 3
internal_value=0.000111025 -0.0408547 -0.0526756 0.0502947 -0.0248226 -0.0574439 -0.0586187 0.0547949 0.0547932 0.0547931 -0.0583567 -0.0583567 0.0547933
internal_weight=42.1805 23.2231 20.6687 18.9574 1.07152 19.7906 0.752216 17.8859 17.5617 2.55439 19.2629 1.10424 0.878095
internal_count=439 205 173 234 10 162 6 224 220 32 157 9 11
is_linear=0
shrinkage=0.05


Tree=30
num_leaves=13
num_cat=0
split_feature=15 11 13 19 1 19 0 19 2 2 19 0
split_gain=38.3978 7.99866 4.41431 2.45959e-05 1.06951e-05 3.0703e-06 3.01202e-06 1.6972e-09 3.71902e-10 1.42109e-14 1.42109e-14 3.04201e-14
threshold=1.0000000180025095e-35 1.0000000180025095e-35 1.0000000180025095e-35 3.6871501186864273 24.500000000000004 3.4188388898504312 33.500000000000007 3.5124494855594821 15.500000000000002 14.500000000000002 3.4571270092919519 39.500000000000007
decision_type=2 2 2 2 2 2 2 2 2 2 2 2
left_child=1 -1 3 4 7 6 -2 10 9 -7 -3 -12
right_child=5 2 -4 -5 -6 8 -8 -9 -10 -11 11 -13
leaf_value=0.054537713914889499 0.054537713914888757 -0.057882952834877682 0.054537713914889596 -0.058248589420667657 -0.058157463159445193 0.054537713914889575 0.054791472848895129 -0.057879450777765809 0.054536135918160228 0.054537725480022739 -0.057882952301394813 -0.057882970855256857
leaf_weight=1.9070103764534021 0.22884124517441051 16.704975724220294 0.91536498069763084 0.48622670024633308 0.36177241802215476 17.62077587842942 0.23913607001304626 0.35280787944793601 0.38129158318042655 0.22884189337491889 0.58820336312055488 0.35292263329029083
leaf_count=25 3 142 12 4 3 231 3 3 5 3 5 3
internal_value=0.00204592 -0.0432531 -0.0526897 -0.0578976 -0.0578883 0.0545409 0.0546674 -0.0578829 0.0545377 0.0545377 -0.057883 -0.057883
internal_weight=40.3682 21.6693 19.7623 18.8469 18.3607 18.6989 0.467977 17.9989 18.2309 17.8496 17.6461 0.941126
internal_count=442 197 172 160 156 245 6 153 239 234 150 8
is_linear=0
shrinkage=0.05


Tree=31
num_leaves=15
num_cat=0
split_feature=15 11 13 19 1 19 0 19 2 2 0 19 0 2
split_gain=36.3141 7.55287 4.16655 2.06572e-05 8.98368e-06 2.60705e-06 2.55696e-06 1.42843e-09 3.12898e-10 2.84217e-14 3.55271e-15 1.42109e-14 3.55271e-15 3.55271e-15
threshold=1.0000000180025095e-35 1.0000000180025095e-35 1.0000000180025095e-35 3.6871501186864273 24.500000000000004 3.4188388898504312 33.500000000000007 3.5124494855594821 15.500000000000002 14.500000000000002 41.500000000000007 3.4538209655306948 51.500000000000007 24.500000000000004
decision_type=2 2 2 2 2 2 2 2 2 2 2 2 2 2
left_child=1 -1 3 4 7 6 -2 10 9 12 -3 13 -7 -12
right_child=5 2 -4 -5 -6 8 -8 -9 -10 -11 11 -13 -14 -15
leaf_value=0.054296859544284315 0.054296859544283538 -0.057439619799987324 0.054296859544284419 -0.05778184543499626 -0.057696580723948232 0.054296859544284384 0.054536053392077399 -0.057436337989213597 0.054295378778428195 0.054296878354719705 -0.057439619898672981 -0.057439628651678898 0.054296859544284419 -0.05743961989867289
leaf_weight=1.8218474462628389 0.21862169355154293 6.4264684915542771 0.8744867742061605 0.46615437418222327 0.34680774807929893 14.647653467953214 0.22851167619228363 0.33812466263770957 0.36426336318254371 0.21862229704856773 8.3431345522403664 0.56372589617967683 2.1862169355154029 1.5784308612346656
leaf_count=25 3 57 12 4 3 201 3 3 5 3 74 5 30 14
internal_value=0.00203607 -0.0429385 -0.0522929 -0.0574533 -0.0574446 0.0542999 0.0544191 -0.0574396 0.0542968 0.0542969 -0.0574396 -0.0574396 0.0542969 -0.0574396
internal_weight=38.6231 20.7592 18.9373 18.0628 17.5967 17.8639 0.447133 17.2499 17.4168 17.0525 16.9118 10.4853 16.8339 9.92157
internal_count=442 197 172 160 156 245 6 153 239 234 150 93 231 88
is_linear=0
shrinkage=0.05


Tree=32
num_leaves=16
num_cat=0
split_feature=15 11 13 19 1 19 0 19 2 19 19 27 19 0 0
split_gain=34.3544 7.13488 3.93444 1.73733e-05 7.5565e-06 2.2152e-06 2.17215e-06 1.20131e-09 2.67445e-10 1.06581e-14 7.10543e-15 5.77316e-15 3.55271e-15 4.44089e-16 1.11022e-16
threshold=1.0000000180025095e-35 1.0000000180025095e-35 1.0000000180025095e-35 3.6871501186864273 24.500000000000004 3.4188388898504312 33.500000000000007 3.5124494855594821 15.500000000000002 3.4361007383805777 3.4571270092919519 1.5000000000000002 3.3297710493344761 39.500000000000007 41.500000000000007
decision_type=2 2 2 2 2 2 2 2 2 2 2 2 2 2 2
left_child=1 13 3 4 7 6 -2 10 9 -7 12 -12 -3 -1 -4
right_child=5 2 14 -5 -6 8 -8 -9 -10 -11 11 -13 -14 -15 -16
leaf_value=0.054069778395106974 0.054069778395106273 -0.057024330838646213 0.054069778395107196 -0.057344937168686064 -0.057265082760235411 0.054069788041371053 0.05429534715306094 -0.057021255850278868 0.054068377516168775 0.054069778395107196 -0.057024332543356385 -0.057024341015515671 -0.057024330838646192 0.054069778395107126 0.054069778395107106
leaf_weight=0.83524274826050049 0.20881068706512707 14.14900176972152 0.20881068706512351 0.4467124342918386 0.33231646567582984 0.20881129056215897 0.21830631047487259 0.32391606271266837 0.34791596233844657 16.078422904014587 0.54003836959600526 0.32402337342500687 1.1880841180682189 0.90484631061553955 0.62643206119537354
leaf_count=12 3 131 3 4 3 3 3 3 5 231 5 3 11 13 9
internal_value=0.00202678 -0.0426435 -0.0519211 -0.0570372 -0.057029 0.0540726 0.0541851 -0.0570243 0.0540697 0.0540698 -0.0570243 -0.0570243 -0.0570243 0.0540698 0.0540698
internal_weight=36.9417 19.8794 18.1393 17.3041 16.8574 17.0623 0.427117 16.5251 16.6352 16.2872 16.2011 0.864062 15.3371 1.74009 0.835243
internal_count=442 197 172 160 156 245 6 153 239 234 150 8 142 25 12
is_linear=0
shrinkage=0.05


Tree=33
num_leaves=19
num_cat=0
split_feature=15 13 12 23 19 14 19 0 19 2 19 0 2 0 20 0 20 0
split_gain=32.5101 4.72804 4.45332 1.27805 1.46311e-05 6.36416e-06 1.88362e-06 1.84663e-06 1.00902e-09 2.26674e-10 1.77636e-14 2.59792e-14 1.42109e-14 3.55271e-15 3.55271e-15 2.22045e-16 2.22045e-16 1.11022e-16
threshold=1.0000000180025095e-35 1.0000000180025095e-35 1.0000000180025095e-35 1.0000000180025095e-35 3.6871501186864273 18.500000000000004 3.4188388898504312 33.500000000000007 3.5124494855594821 15.500000000000002 3.4571270092919519 39.500000000000007 14.500000000000002 59.500000000000007 4.5638645400014672 40.500000000000007 4.7264107230466701 38.500000000000007
decision_type=2 2 2 2 2 2 2 2 2 2 2 2 2 2 2 2 2 2
left_child=1 2 3 4 5 8 7 -2 10 12 14 -12 13 -8 -1 17 -16 -4
right_child=6 -3 15 -5 -6 -7 9 -9 -10 -11 11 -13 -14 -15 16 -17 -18 -19
leaf_value=-0.056634976555498387 0.053855566953300786 0.053855566953301737 0.053855566953301737 0.053855566953301737 -0.056935594669120487 -0.056860732336336609 0.053855566953301764 0.054068389802542874 -0.056632096813938604 0.053854247194470087 -0.056634976651089776 -0.056634994940194611 0.053855578135506815 0.053855566953301265 -0.056634976555498331 0.05385556695330157 -0.056634976555498255 0.05385556695330157
leaf_weight=13.445699885487565 0.19939691573381679 1.1963814944028843 0.3323281928896894 0.26586255431175132 0.42790360003709693 0.31830011308193285 15.154165595769875 0.20850900560617447 0.31018211692571718 0.33223050832748491 0.51714229583740312 0.31028592586517334 0.19939749687910158 0.19939691573381502 0.93085614591836996 0.3323281928896904 0.31028538197278976 0.3323281928896904
leaf_count=130 3 18 5 4 4 3 228 3 3 5 5 3 3 3 9 5 3 5
internal_value=0.00201803 -0.0423668 -0.048822 -0.0549021 -0.056647 -0.0566394 0.0538583 0.0539644 -0.0566349 0.0538555 -0.056635 -0.056635 0.0538556 0.0538556 -0.056635 0.0538556 -0.056635 0.0538556
internal_weight=35.323 19.0299 17.8335 16.8365 16.5707 16.1428 16.2931 0.407906 15.8245 15.8852 15.5143 0.827428 15.553 15.3536 14.6868 0.996985 1.24114 0.664656
internal_count=442 197 179 164 160 156 245 6 153 239 150 8 234 231 142 15 12 10
is_linear=0
shrinkage=0.05


Tree=34
num_leaves=14
num_cat=0
split_feature=15 11 13 19 1 19 0 19 2 19 20 2 14
split_gain=30.7736 6.37427 3.51252 1.23359e-05 5.36637e-06 1.60267e-06 1.57088e-06 8.52655e-10 1.94543e-10 7.10543e-15 1.17684e-14 3.55271e-15 3.55271e-15
threshold=1.0000000180025095e-35 1.0000000180025095e-35 1.0000000180025095e-35 3.6871501186864273 24.500000000000004 3.4188388898504312 33.500000000000007 3.5124494855594821 15.500000000000002 3.4571270092919519 4.1972427160653272 14.500000000000002 8.5000000000000018
decision_type=2 2 2 2 2 2 2 2 2 2 2 2 2
left_child=1 -1 3 4 7 6 -2 9 11 12 -11 -7 -3
right_child=5 2 -4 -5 -6 8 -8 -9 -10 10 -12 -13 -14
leaf_value=0.053653418387205165 0.05365341838720529 -0.056269649093353018 0.053653418387205165 -0.056551741513290045 -0.056481509731982175 0.053653418387205304 0.053854299830177844 -0.056266943310164276 0.053652167033682058 -0.056269649187714724 -0.056269661757320559 0.053653425275155722 -0.056269649093352636
leaf_weight=1.586406491696837 0.19036877900361915 0.7920541167259153 0.76147511601448137 0.4097272530198105 0.30475777387619096 14.658395983278746 0.19910842925310135 0.29692062735557634 0.31718763709068376 0.4950338155031212 0.29702082276344299 0.19036933779716569 13.266906455159186
leaf_count=25 3 8 12 4 3 231 3 3 5 5 3 3 134
internal_value=0.00200977 -0.042107 -0.0512453 -0.056281 -0.0562738 0.053656 0.0537561 -0.0562696 0.0536534 -0.0562696 -0.0562697 0.0536534 -0.0562696
internal_weight=33.7657 18.2103 16.6239 15.8624 15.4527 15.5554 0.389477 15.1479 15.166 14.851 0.792055 14.8488 14.059
internal_count=442 197 172 160 156 245 6 153 239 150 8 234 142
is_linear=0
shrinkage=0.05


Tree=35
num_leaves=24
num_cat=0
split_feature=15 11 13 19 1 27 20 19 14 0 0 18 20 20 19 20 19 0 0 1 19 0 20
split_gain=29.2675 6.99443 3.33216 1.03618e-05 6.01242e-06 2.33009e-06 6.99716e-07 7.67049e-10 4.83821e-10 5.27578e-12 1.62004e-12 3.8064e-12 7.01661e-13 4.86344e-12 1.77636e-14 2.32037e-14 8.88178e-15 3.55271e-15 3.55271e-15 1.77636e-15 1.77636e-15 5.55112e-16 2.22045e-16
threshold=1.0000000180025095e-35 1.0000000180025095e-35 1.0000000180025095e-35 3.6871501186864273 24.500000000000004 4.5000000000000009 3.9617547474388197 3.5124494855594821 15.500000000000002 61.500000000000007 55.500000000000007 1.0000000180025095e-35 4.1240667464776735 4.1164969561701001 3.4571270092919519 4.2781389507684739 3.4361007383805777 61.500000000000007 54.500000000000007 28.500000000000004 4.1339984014413194 57.500000000000007 4.4257004197085843
decision_type=2 2 2 2 2 2 2 2 2 2 2 2 2 2 2 2 2 2 2 2 2 2 2
left_child=1 -1 3 4 7 6 -2 14 -8 10 12 -12 13 -10 17 -16 -14 -3 19 20 -18 -13 -21
right_child=5 2 -4 -5 -6 -7 8 -9 9 -11 11 21 16 -15 15 -17 18 -19 -20 22 -22 -23 -24
leaf_value=0.053462561695329841 0.053560163128220629 -0.055926601455636764 0.053462561695329952 -0.056191511863663869 -0.05612556974875741 0.053640286749687106 0.05345995296941182 -0.055924324236941915 0.053462561695330119 0.053462283339095987 0.053462283339095987 0.053462565534295459 0.053462573212205183 0.05346228333909625 -0.055926601805193744 -0.055926620686907062 0.053462561955781855 -0.055926601455636507 0.053462561695329563 0.053462561695329827 0.05346256169532973 0.053462561695329661 0.053462561695329869
leaf_weight=1.756573367863896 0.18593358993529996 14.211178198456766 0.72685794532298942 0.39217986911535163 0.38891527056694108 0.18958351016044694 0.18159513548016448 0.37885015457868654 1.1508584134280635 0.18170171231031496 0.18170171231031496 0.18171466141939163 0.18171501159667869 0.18170171231031407 0.37896472960710603 0.28422433882951736 9.267439343035214 0.37896475195884782 0.24228598177433092 0.72685794532299108 0.42400046810507852 0.1817144863307476 0.72685794532299042
leaf_count=29 3 150 12 4 4 3 3 4 19 3 3 3 3 3 4 3 153 4 4 12 7 3 12
internal_value=-0.000812989 -0.0415601 -0.0512983 -0.0559376 -0.0559314 0.0534662 0.0534638 -0.0559265 0.0534625 0.0534626 0.0534626 0.0534625 0.0534626 0.0534625 -0.0559266 -0.0559266 0.0534626 -0.0559266 0.0534626 0.0534626 0.0534626 0.0534626 0.0534626
internal_weight=33.0824 18.8967 17.1401 16.4133 16.0211 14.1857 13.9961 15.6322 13.8101 13.6285 13.4468 0.545131 12.9017 1.33256 15.2533 0.663189 11.5692 14.5901 11.3874 11.1452 9.69144 0.363429 1.45372
internal_count=448 214 185 173 169 234 231 165 228 225 222 9 213 22 161 7 191 154 188 184 160 6 24
is_linear=0
shrinkage=0.05


Tree=36
num_leaves=20
num_cat=0
split_feature=15 11 13 19 1 27 20 19 14 5 11 19 20 19 0 0 0 0 6
split_gain=27.7169 6.61668 3.15123 8.75593e-06 5.08106e-06 1.98456e-06 5.96246e-07 6.45464e-10 4.12857e-10 5.43565e-12 3.79239e-11 1.77636e-14 2.12053e-14 7.10543e-15 3.55271e-15 3.55271e-15 1.77636e-15 2.22045e-16 2.22045e-16
threshold=1.0000000180025095e-35 1.0000000180025095e-35 1.0000000180025095e-35 3.6871501186864273 24.500000000000004 4.5000000000000009 3.9617547474388197 3.5124494855594821 15.500000000000002 2.5000000000000004 1.0000000180025095e-35 3.4571270092919519 4.2781389507684739 3.4361007383805777 65.000000000000014 59.500000000000007 54.500000000000007 47.500000000000007 3.5000000000000004
decision_type=2 2 2 2 2 2 2 2 2 2 2 2 2 2 2 2 2 2 2
left_child=1 18 3 4 7 6 -2 11 -8 13 -11 14 -13 -10 -3 16 -15 -12 -1
right_child=5 2 -4 -5 -6 -7 8 -9 9 10 17 12 -14 15 -16 -17 -18 -19 -20
leaf_value=0.053282309173656978 0.053374530206188153 -0.055604243788910539 0.053282309173657484 -0.055853195220142086 -0.055791239003783688 0.053450190286426502 0.053279842254291811 -0.055602107977354709 0.053282318988070468 0.053281513477375614 0.053282309173657477 -0.055604244019269666 -0.055604262531708026 0.053282309334494675 -0.05560424378891015 0.053282308327567807 0.053282309089048512 0.053282309173657519 0.053282309173657588
leaf_weight=0.28903691098094242 0.17746508121490556 13.685104474425307 0.69368858635425645 0.3752554580569275 0.37210839986801225 0.18096257001161653 0.17330781742930312 0.36240889877080995 0.23123019933700284 0.1733853556215762 0.5780738219618804 0.36251930892467576 0.27189024537801743 10.752173639833922 0.27188949286937791 0.17342219129204828 0.5780738368630417 0.52026643976569176 1.3873771727085111
leaf_count=5 3 151 12 4 4 3 3 4 4 3 10 4 3 186 3 3 10 9 24
internal_value=-0.000807615 -0.0413324 -0.051007 -0.0556146 -0.0556087 0.0532857 0.0532835 -0.0556042 0.0532823 0.0532823 0.0532822 -0.0556042 -0.0556043 0.0532823 -0.0556042 0.0532823 0.0532823 0.0532823 0.0532823
internal_weight=31.6096 18.0713 16.3949 15.7012 15.3259 13.5384 13.3574 14.9538 13.1799 13.0066 1.27173 14.5914 0.63441 11.7349 13.957 11.5037 11.3302 1.09834 1.67641
internal_count=448 214 185 173 169 234 231 165 228 225 22 161 7 203 154 199 196 19 29
is_linear=0
shrinkage=0.05


Tree=37
num_leaves=18
num_cat=0
split_feature=15 11 13 19 1 2 20 19 14 0 2 19 20 0 0 2 0
split_gain=26.2546 6.26121 2.98107 7.40622e-06 4.29809e-06 1.01669e-06 5.08344e-07 5.49338e-10 3.5115e-10 6.48264e-11 1.42109e-14 7.10543e-15 1.79856e-14 3.55271e-15 3.55271e-15 3.55271e-15 1.77636e-15
threshold=1.0000000180025095e-35 1.0000000180025095e-35 1.0000000180025095e-35 3.6871501186864273 24.500000000000004 16.500000000000004 3.9617547474388197 3.5124494855594821 15.500000000000002 61.500000000000007 14.500000000000002 3.4571270092919519 4.2781389507684739 61.500000000000007 58.500000000000007 22.500000000000004 51.500000000000007
decision_type=2 2 2 2 2 2 2 2 2 2 2 2 2 2 2 2 2
left_child=1 -1 3 4 7 6 -2 11 -8 10 14 13 -13 15 16 -3 -10
right_child=5 2 -4 -5 -6 -7 8 -9 9 -11 -12 12 -14 -15 -16 -17 -18
leaf_value=0.053111997815611017 0.053199167297786093 -0.055301132308646708 0.053111997815610934 -0.055535238883839294 -0.0554769865914349 0.053208942644351789 0.053109665201318629 -0.055299117339217191 0.053111997811066847 0.053111001576602784 0.053112009731214244 -0.055301130273458524 -0.055301147661601269 -0.055301132308646361 0.053111997535380762 -0.055301132308646611 0.05311199775333774
leaf_weight=1.5996386222541339 0.1693524010479458 10.747120201587665 0.6619194298982628 0.35894594341516572 0.35591471195221025 0.28303384408354837 0.16537038236856361 0.34657501429319459 10.204591225832692 0.16543316096067506 0.27580092102289278 0.34668128937482912 0.2600116953253746 0.34668129682540971 0.16547987237572748 2.253428429365159 1.4893187470734126
leaf_count=29 3 124 12 4 4 5 3 4 185 3 5 4 3 4 3 26 27
internal_value=-0.000802567 -0.0411182 -0.0507331 -0.0553109 -0.0553054 0.0531152 0.0531131 -0.0553011 0.053112 0.053112 0.053112 -0.0553011 -0.0553011 -0.0553011 0.053112 -0.0553011 0.053112
internal_weight=30.1953 17.2769 15.6773 15.0154 14.6564 12.9184 12.6353 14.3005 12.466 12.3006 12.1352 13.9539 0.606693 13.3472 11.8594 13.0005 11.6939
internal_count=448 214 185 173 169 234 229 165 226 223 220 161 7 154 215 150 212
is_linear=0
shrinkage=0.05


Tree=38
num_leaves=18
num_cat=0
split_feature=15 11 13 19 1 27 20 19 14 2 2 19 0 2 0 0 0
split_gain=24.875 5.92651 2.82094 6.27056e-06 3.63908e-06 1.44778e-06 4.33676e-07 4.63761e-10 2.98904e-10 6.19291e-11 1.95399e-14 3.55271e-15 1.77636e-15 1.77636e-15 2.22045e-16 1.11022e-16 5.55112e-17
threshold=1.0000000180025095e-35 1.0000000180025095e-35 1.0000000180025095e-35 3.6871501186864273 24.500000000000004 4.5000000000000009 3.9617547474388197 3.5124494855594821 15.500000000000002 16.500000000000004 14.500000000000002 3.4571270092919519 58.500000000000007 13.500000000000002 37.500000000000007 51.500000000000007 34.500000000000007
decision_type=2 2 2 2 2 2 2 2 2 2 2 2 2 2 2 2 2
left_child=1 14 3 4 7 6 -2 11 -8 10 12 -3 13 -10 16 -4 -1
right_child=5 2 15 -5 -6 -7 8 -9 9 -11 -12 -13 -14 -15 -16 -17 -18
leaf_value=0.05295102468179741 0.053033445863391794 -0.055015932981041495 0.052951024681797791 -0.055236218440231327 -0.055181410445977477 0.05310127541385861 0.052948821000036929 -0.05501403948550318 0.052951024709940564 0.052950027966527952 0.052951037924242897 -0.055015937329641967 0.052951026758946841 0.052951025264347806 0.052951024681797978 0.052951024681797756 0.05295102468179768
leaf_weight=0.15787575021386224 0.16158365085721094 12.760428592562667 0.42100200057029802 0.34324151277542192 0.34032407402992326 0.16480477154254991 0.15777094662189384 0.33133744448423463 10.893426787108174 0.15782831981778223 0.263127341866494 0.58002016693353731 0.263126380741597 0.26312626153230745 1.2103807516396043 0.21050100028514862 0.15787575021386147
leaf_count=3 3 154 8 4 4 3 3 4 207 3 5 7 5 5 23 4 3
internal_value=-0.000797818 -0.0409166 -0.0504753 -0.0550251 -0.0550199 0.0529541 0.0529521 -0.0550159 0.052951 0.052951 0.052951 -0.0550159 0.052951 0.052951 0.052951 0.052951 0.052951
internal_weight=28.8378 16.513 14.9869 14.3554 14.0121 12.3248 12.16 13.6718 11.9984 11.8406 11.6828 13.3404 11.4197 11.1566 1.52613 0.631503 0.315752
internal_count=448 214 185 173 169 234 231 165 228 225 222 161 217 212 29 12 6
is_linear=0
shrinkage=0.05


Tree=39
num_leaves=22
num_cat=0
split_feature=15 11 13 19 1 27 19 19 2 19 15 19 3 0 2 19 19 1 19 19 19
split_gain=23.5729 5.6112 2.67017 5.31395e-06 3.08426e-06 1.23502e-06 2.65832e-07 3.93323e-10 5.26548e-11 1.85807e-12 4.86811e-12 8.88178e-15 7.43849e-15 1.77636e-15 1.77636e-15 2.16493e-15 1.77636e-15 1.44329e-15 4.44089e-16 1.55431e-15 2.22045e-16
threshold=1.0000000180025095e-35 1.0000000180025095e-35 1.0000000180025095e-35 3.6871501186864273 24.500000000000004 4.5000000000000009 3.4188388898504312 3.5124494855594821 16.500000000000004 3.5375747455704984 1.5000000000000002 3.4571270092919519 1.0000000180025095e-35 59.500000000000007 13.500000000000002 3.8506963179969529 3.6838630411062101 25.500000000000004 3.6326119644709265 3.6558823719384201 3.6234640474436817
decision_type=2 2 2 2 2 2 2 2 2 2 2 2 2 2 2 2 2 2 2 2 2
left_child=1 -1 3 4 7 6 -2 11 9 10 17 -3 -13 14 16 -16 18 -8 20 -20 -11
right_child=5 2 -4 -5 -6 -7 8 -9 -10 13 -12 12 -14 -15 15 -17 -18 -19 19 -21 -22
leaf_value=0.052798832172776214 0.052856364623030519 -0.054747428135980714 0.052798832172776061 -0.054954833773805348 -0.05490324239634059 0.052940908109684839 0.052798838706699928 -0.054745644507326732 0.052797886694902534 0.052798832113433281 0.052798496117685889 -0.054747426568009544 -0.054747438190075541 0.052798832154026254 0.052798840626486744 0.05279883217277586 0.052798832167860216 0.05279883217277586 0.052798837001393817 0.052798832172776103 0.052798832172776082
leaf_weight=1.4557806737720955 0.20426174625754079 12.196118384599679 0.60239200294017869 0.32813089340925294 0.32532492280006486 0.15723002329468805 0.20079793035983762 0.3166839927434929 0.15055262669920999 0.70279068499803077 0.15058187395334244 0.23758672177791673 0.31678295880556107 0.150598134845496 0.15059847757220346 0.15059800073504448 8.4836873896419984 0.15059800073504448 0.25099710002541531 0.45179400220513344 0.40159466862678528
leaf_count=29 4 154 12 4 4 3 4 4 3 14 3 3 4 3 3 3 169 3 5 9 8
internal_value=-0.000793349 -0.0407267 -0.0502325 -0.054756 -0.0547512 0.0528017 0.0527998 -0.0547474 0.0527988 0.0527988 0.0527987 -0.0547474 -0.0547474 0.0527988 0.0527988 0.0527988 0.0527988 0.0527988 0.0527988 0.0527988 0.0527988
internal_weight=27.5355 15.7788 14.323 13.7206 13.3925 11.7567 11.5995 13.0672 11.3952 11.2446 0.501978 12.7505 0.55437 10.7427 10.5921 0.301196 10.2909 0.351396 1.80718 0.702791 1.10439
internal_count=448 214 185 173 169 234 231 165 227 224 10 161 7 214 211 6 205 7 36 14 22
is_linear=0
shrinkage=0.05


Tree=40
num_leaves=22
num_cat=0
split_feature=15 11 13 19 1 19 0 27 2 19 14 2 19 20 0 0 5 1 0 0 1
split_gain=22.1317 4.26496 2.31708 4.52565e-06 1.97049e-06 4.38653e-07 7.97935e-07 2.60748e-07 3.64325e-10 3.15971e-10 4.9738e-14 1.42109e-14 5.32907e-15 1.19904e-14 3.55271e-15 1.77636e-15 1.77636e-15 3.33067e-16 2.22045e-16 1.11022e-16 1.11022e-16
threshold=1.0000000180025095e-35 1.0000000180025095e-35 1.0000000180025095e-35 3.6871501186864273 24.500000000000004 3.4188388898504312 41.500000000000007 4.5000000000000009 16.500000000000004 3.5124494855594821 15.500000000000002 14.500000000000002 3.4571270092919519 4.2781389507684739 56.500000000000007 55.500000000000007 2.5000000000000004 32.500000000000007 60.500000000000007 51.500000000000007 28.500000000000004
decision_type=2 2 2 2 2 2 2 2 2 2 2 2 2 2 2 2 2 2 2 2 2
left_child=1 -1 3 4 9 6 -2 8 10 12 -7 14 15 -14 16 -3 -12 20 -17 -4 -16
right_child=5 2 19 -5 -6 7 -8 -9 -10 -11 11 -13 13 -15 17 18 -18 -19 -20 -21 -22
leaf_value=0.0526548914940035 0.052652971414500038 -0.05449450741602712 0.052654891494003257 -0.054689886019291992 -0.054641295224758857 0.052654915248963034 0.052799926528717768 0.052721949312963194 0.05265291922799429 -0.05449262318711643 0.052654891434402079 0.052654902862004041 -0.054494506519965936 -0.054494520985647367 0.052654888349567421 -0.05449450741602696 0.052654891494003375 0.052654891652366746 -0.054494507416026974 0.052654891494003132 0.052654890185724904
leaf_weight=1.1012013889849175 0.23923621326684852 9.3078961819410235 0.38302657008171159 0.31360160559415895 0.2331784665584572 0.23939367383718035 0.15046928822994232 0.14672695845365602 0.23923186212778169 0.22694244235754091 8.9053678140044141 0.23939261585474092 0.37836975604295808 0.22702249884605408 0.14363499358296472 0.75673952698707647 0.76605314016342241 0.23939166218042374 0.52971766889095306 0.14363496378064156 0.14363503456115723
leaf_count=23 5 123 8 4 3 5 3 3 5 3 186 5 5 3 3 10 16 5 7 3 3
internal_value=0.00144466 -0.0416774 -0.0499876 -0.0545024 -0.0544974 0.0526576 0.0527097 0.0526557 0.0526548 -0.0544945 0.0526549 0.0526549 -0.0544945 -0.0544945 0.0526549 -0.0544945 0.0526549 0.0526549 -0.0544945 0.0526549 0.0526549
internal_weight=25.0539 13.6013 12.5001 11.9735 11.6599 11.4525 0.389706 11.0628 10.9161 11.4267 10.6769 10.4375 11.1997 0.605392 10.1981 10.5944 9.67142 0.526662 1.28646 0.526662 0.28727
internal_count=431 192 169 158 154 239 8 231 228 151 223 218 148 8 213 140 202 11 17 11 6
is_linear=0
shrinkage=0.05


Tree=41
num_leaves=23
num_cat=0
split_feature=15 11 13 19 1 19 0 27 2 19 14 2 19 20 0 0 0 0 0 0 1 0
split_gain=20.9816 4.03994 2.19437 3.84131e-06 1.67265e-06 3.74624e-07 6.81278e-07 2.2275e-07 3.09663e-10 2.67802e-10 6.39488e-14 1.59872e-14 5.32907e-15 7.43849e-15 3.55271e-15 1.77636e-15 1.77636e-15 1.77636e-15 1.77636e-15 2.22045e-16 1.66533e-16 1.11022e-16
threshold=1.0000000180025095e-35 1.0000000180025095e-35 1.0000000180025095e-35 3.6871501186864273 24.500000000000004 3.4188388898504312 41.500000000000007 4.5000000000000009 16.500000000000004 3.5124494855594821 15.500000000000002 14.500000000000002 3.4571270092919519 4.2781389507684739 59.500000000000007 60.500000000000007 58.500000000000007 55.500000000000007 52.500000000000007 49.500000000000007 32.500000000000007 54.500000000000007
decision_type=2 2 2 2 2 2 2 2 2 2 2 2 2 2 2 2 2 2 2 2 2 2
left_child=1 19 3 4 9 6 -2 8 10 12 -7 14 15 -14 17 16 -3 18 -12 -1 -19 -20
right_child=5 2 -4 -5 -6 7 -8 -9 -10 -11 11 -13 13 -15 -16 -17 -18 20 21 -21 -22 -23
leaf_value=0.052518711356183634 0.052516898564330498 -0.054256134333085321 0.052518711356183446 -0.054440282663388267 -0.054394492686504918 0.052518738526944178 0.052655943180669476 0.052582178203587564 0.052516849721895797 -0.054254359558552123 0.052518711361515126 0.052518724454525247 -0.054256134508544919 -0.054256146245097059 0.052518716031857884 -0.054256134333085071 -0.054256134333084932 0.052518713087691293 0.052518711356183405 0.052518711356183245 0.052518711356183405 0.052518711356183405
leaf_weight=0.91316752135753521 0.22814326360821624 9.3256093785166634 0.50224213674664575 0.2996401712298401 0.22278714179992753 0.22829385474323771 0.1435123048722744 0.13993263244628984 0.22813910618424493 0.21679838746786195 8.5381163805723101 0.22829283773899156 0.36145771294832307 0.21687525510787964 0.13697524368763048 0.50604081898927766 0.28916618227958757 0.18263352662324983 0.41092538461089212 0.13697512820363045 0.22829188033938408 0.22829188033938408
leaf_count=20 5 129 11 4 3 5 3 3 5 3 187 5 5 3 3 7 4 4 9 3 5 5
internal_value=0.00144089 -0.0415032 -0.0497722 -0.0542636 -0.0542589 0.0525213 0.0525706 0.0525195 0.0525187 -0.0542561 0.0525187 0.0525187 -0.0542561 -0.0542561 0.0525187 -0.0542561 -0.0542561 0.0525187 0.0525187 0.0525187 0.0525187 0.0525187
internal_weight=23.9123 12.9908 11.9406 11.4384 11.1387 10.9215 0.371656 10.5499 10.41 10.9159 10.1818 9.95353 10.6991 0.578333 9.72523 10.1208 9.61478 9.58826 9.17733 1.05014 0.410925 0.639217
internal_count=431 192 169 158 154 239 8 231 228 151 223 218 148 8 213 140 133 210 201 23 9 14
is_linear=0
shrinkage=0.05


Tree=42
num_leaves=28
num_cat=0
split_feature=15 11 13 14 1 0 20 2 20 0 1 2 14 2 20 0 14 2 0 0 0 0 0 20 0 0 1
split_gain=19.8949 3.82764 2.07864 2.62576e-06 1.16157e-06 8.96523e-07 2.20644e-07 1.85423e-07 3.22752e-08 2.06616e-07 4.6119e-10 2.25249e-10 1.11477e-10 1.16246e-10 9.87377e-11 4.70268e-12 5.68434e-14 7.10543e-15 3.55271e-15 3.55271e-15 1.77636e-15 1.77636e-15 8.88178e-16 8.88178e-16 2.22045e-16 1.11022e-16 1.11022e-16
threshold=1.0000000180025095e-35 1.0000000180025095e-35 1.0000000180025095e-35 16.500000000000004 20.500000000000004 68.500000000000014 3.9076319663487209 20.500000000000004 4.1164969561701001 44.500000000000007 15.500000000000002 15.500000000000002 13.500000000000002 12.500000000000002 4.5042510431698473 35.500000000000007 15.500000000000002 14.500000000000002 56.500000000000007 59.500000000000007 38.500000000000007 48.500000000000007 47.500000000000007 4.1429608756430438 48.500000000000007 60.500000000000007 22.500000000000004
decision_type=2 2 2 2 2 2 2 2 2 2 2 2 2 2 2 2 2 2 2 2 2 2 2 2 2 2 2
left_child=1 24 3 12 -5 -6 -2 8 9 15 -10 16 18 -14 -13 -8 -12 19 -3 20 26 22 23 -22 -1 -20 -18
right_child=6 2 -4 4 5 -7 7 -9 10 -11 11 14 13 -15 -16 -17 17 -19 25 -21 21 -23 -24 -25 -26 -27 -28
leaf_value=0.052389844994220704 0.052456063153223292 -0.054031366698907672 0.052389844994220502 -0.054205016854837744 -0.054031366505237405 -0.054161843949402912 0.052389516559137955 0.052449976501603206 0.052386809117322478 0.052457025854651479 0.05238987140265336 0.052389327811276046 -0.05402969123071702 -0.054031366505237294 0.052387383049643327 0.052389845238550094 0.052389844994221148 0.05238985515505528 -0.054031366505237322 0.052389850216305094 0.052389844891972695 0.052389845102359639 0.052389844994220627 0.052389845083757693 0.052389844994220405 -0.054031366505237405 0.052389844994220405
leaf_weight=0.82717876136302837 0.13372136279940505 8.9067632704973168 0.47889296710491258 0.28623235225677568 0.34522335976362228 0.21280896663665771 0.1305908262729617 0.13343790918588716 0.13045630231499572 0.13376918807625771 0.2176805026829215 0.1305812634527691 0.20706084370613176 0.20713401585817337 0.13048470392823219 0.65303587540984154 0.52242869138717107 0.17414340376854021 0.41426803171634752 0.13060727715492326 0.26121435686945904 2.7862863838672638 0.60950013995170582 3.9617509171366692 0.17414289712905884 0.34522335976362228 0.17414289712905884
leaf_count=19 3 129 11 4 5 3 3 3 3 3 5 3 3 3 3 15 12 4 6 3 6 64 14 91 4 5 4
internal_value=0.00143732 -0.0413389 -0.049569 -0.0540384 -0.0541231 -0.0540811 0.0523923 0.0523914 0.0523906 0.0523996 0.0523898 0.0523898 -0.0540313 -0.0540305 0.0523884 0.0523898 0.0523898 0.0523898 -0.0540314 0.0523898 0.0523898 0.0523898 0.0523898 0.0523898 0.0523898 -0.0540314 0.0523898
internal_weight=22.8188 12.4049 11.4036 10.9247 0.844265 0.558032 10.4138 10.2801 10.1467 0.917396 9.22928 9.09882 10.0804 0.414195 0.261066 0.783627 8.83775 8.62007 9.66625 8.44593 8.31532 7.61875 4.83247 4.22297 1.00132 0.759491 0.696572
internal_count=431 192 169 158 12 8 239 236 233 21 212 209 146 6 6 18 203 198 140 194 191 175 111 97 23 11 16
is_linear=0
shrinkage=0.05


Tree=43
num_leaves=20
num_cat=0
split_feature=15 11 13 19 1 19 0 27 2 19 20 0 14 2 19 18 0 18 19
split_gain=18.8675 3.62727 1.96946 2.77368e-06 1.20787e-06 2.74015e-07 4.99344e-07 1.63217e-07 2.41458e-10 1.93529e-10 9.59233e-14 2.91211e-13 3.37508e-14 1.06581e-14 5.32907e-15 3.55271e-15 1.77636e-15 1.77636e-15 1.77636e-15
threshold=1.0000000180025095e-35 1.0000000180025095e-35 1.0000000180025095e-35 3.6871501186864273 24.500000000000004 3.4188388898504312 41.500000000000007 4.5000000000000009 16.500000000000004 3.5124494855594821 4.1056603206854883 43.500000000000007 15.500000000000002 14.500000000000002 3.4571270092919519 1.0000000180025095e-35 59.500000000000007 1.0000000180025095e-35 3.4538209655306948
decision_type=2 2 2 2 2 2 2 2 2 2 2 2 2 2 2 2 2 2 2
left_child=1 -1 3 4 9 6 -2 8 10 14 11 -7 -12 16 15 18 -14 -16 -3
right_child=5 2 -4 -5 -6 7 -8 -9 -10 -11 12 -13 13 -15 17 -17 -18 -19 -20
leaf_value=0.05226786620296197 0.052266180016547793 -0.053819322215056309 0.052267866202961769 -0.053983151199819751 -0.053942423182940069 0.052267866424268894 0.052391019313736478 0.052324839103554538 0.052266140511801534 -0.053817742478054667 0.052267886847177127 0.052267789966520407 0.052267866233487718 0.052267877034933567 -0.053819325158018995 -0.053819322215056135 0.052267867227082487 -0.053819330955738369 -0.053819322215055955
leaf_weight=0.95465333387255569 0.20739243179559608 8.0434038192033661 0.45657333359122354 0.27336335927248079 0.20323274284601289 0.49808003380894206 0.13050594553351402 0.12722818925976831 0.20738897845149118 0.19771843403577882 0.20753514021634956 0.16602157056331635 8.0522933937609142 0.20753423124551851 0.26371824741363603 0.85708401352167207 0.12452010810375291 0.2637186273932457 0.32964769750833589
leaf_count=23 5 122 11 4 3 12 3 3 5 3 5 4 194 5 4 13 3 4 5
internal_value=0.00143395 -0.0411838 -0.0493773 -0.053826 -0.0538218 0.0522701 0.0523144 0.0522686 0.0522678 -0.0538193 0.0522679 0.0522678 0.0522679 0.0522679 -0.0538193 -0.0538193 0.0522679 -0.0538193 -0.0538193
internal_weight=21.7716 11.8431 10.8885 10.4319 10.1585 9.9285 0.337898 9.5906 9.46337 9.95529 9.25598 0.664102 8.59188 8.38435 9.75757 9.23014 8.17681 0.527437 8.37305
internal_count=431 192 169 158 154 239 8 231 228 151 223 16 207 202 148 140 197 8 127
is_linear=0
shrinkage=0.05


Tree=44
num_leaves=19
num_cat=0
split_feature=15 18 4 4 19 1 19 0 2 2 19 20 20 0 14 20 2 0
split_gain=17.896 2.6374 1.79758 0.869488 2.34278e-06 1.02498e-06 2.3426e-07 4.26841e-07 1.39793e-07 1.75886e-10 1.63963e-10 7.95034e-11 8.70415e-14 2.49245e-13 4.08562e-14 7.54952e-15 5.32907e-15 1.77636e-15
threshold=1.0000000180025095e-35 1.0000000180025095e-35 2.5000000000000004 1.5000000000000002 3.6871501186864273 24.500000000000004 3.4188388898504312 41.500000000000007 20.500000000000004 15.500000000000002 3.5124494855594821 4.5042510431698473 4.1056603206854883 43.500000000000007 15.500000000000002 4.2653722329236468 14.500000000000002 61.500000000000007
decision_type=2 2 2 2 2 2 2 2 2 2 2 2 2 2 2 2 2 2
left_child=1 4 3 -3 5 10 7 -2 9 12 17 -11 13 -8 -14 -5 -16 -1
right_child=6 2 -4 15 -6 -7 8 -9 -10 11 -12 -13 14 -15 16 -17 -18 -19
leaf_value=-0.053619201734896496 0.05215077744491077 0.052152373560257481 0.052152373560257495 -0.05361920174378363 -0.053773827451687933 -0.053735397274645075 0.052152373408273389 0.052268988467473271 0.052206374191703257 0.052151908329853537 -0.05361771133549436 0.052150077806421405 0.052152397284133949 0.052152300951970654 0.052152373691526067 -0.053619212842947253 0.052152381400712891 -0.053619201682581635
leaf_weight=8.0566101968288368 0.19770330563187499 0.23740553855895918 1.1078925132751463 0.88119171559810638 0.26101787388324815 0.1940469369292267 0.47481111064552806 0.12442360445857048 0.12129318341612894 0.1186791807413109 0.18875949829816896 0.11858659982681274 0.19783966243266871 0.15826548635959625 7.7948153130710125 0.18882724642753601 0.15827082097530354 0.18882679939270097
leaf_count=128 5 6 28 14 4 3 12 3 3 3 3 3 5 4 197 3 4 3
internal_value=0.00143075 -0.0410374 0.0052941 -0.0344129 -0.0536262 -0.0536218 0.0521545 0.0521964 0.0521531 0.0521523 -0.0536192 0.052151 0.0521524 0.0521524 0.0521524 -0.0536192 0.0521524 -0.0536192
internal_weight=20.7693 11.3046 2.41532 1.30742 8.88926 8.62824 9.46469 0.322127 9.14256 9.02127 8.4342 0.237266 8.784 0.633077 8.15093 1.07002 7.95309 8.24544
internal_count=431 192 51 23 141 137 239 8 231 228 134 6 222 16 206 17 201 131
is_linear=0
shrinkage=0.05


Tree=45
num_leaves=27
num_cat=0
split_feature=15 11 13 19 19 1 27 2 19 1 0 20 0 20 0 19 19 1 0 0 0 19 0 0 0 19
split_gain=17.9763 3.94839 1.93196 2.05256e-06 1.27548e-06 2.94652e-07 1.19918e-07 1.77504e-10 1.46303e-10 8.70433e-11 5.37559e-11 2.95231e-12 1.57563e-12 9.41469e-14 2.76668e-13 7.10543e-15 1.75415e-14 1.77636e-14 2.10942e-15 1.77636e-15 8.88178e-16 8.88178e-16 3.33067e-16 2.77556e-16 2.22045e-16 2.22045e-16
threshold=1.0000000180025095e-35 1.0000000180025095e-35 1.0000000180025095e-35 3.6871501186864273 3.4120590421700903 21.500000000000004 4.5000000000000009 16.500000000000004 3.5124494855594821 15.500000000000002 54.500000000000007 4.0683570087824092 65.000000000000014 4.1056603206854883 43.500000000000007 3.6794266156727975 3.6326119644709265 25.500000000000004 48.500000000000007 54.500000000000007 53.500000000000007 3.4361007383805777 55.500000000000007 57.500000000000007 48.500000000000007 3.4813449767064717
decision_type=2 2 2 2 2 2 2 2 2 2 2 2 2 2 2 2 2 2 2 2 2 2 2 2 2 2
left_child=1 24 3 5 -2 8 7 9 12 -6 -9 -11 19 14 -13 16 21 18 -18 -3 -17 -15 -22 -24 -1 -23
right_child=4 2 -4 -5 6 -7 -8 10 -10 11 -12 13 -14 15 -16 20 17 -19 -20 -21 22 25 23 -25 -26 -27
leaf_value=0.052043000259185283 0.052206695838400652 -0.053430256046737991 0.052043000259185068 -0.053576732065708912 0.052041599090804191 -0.053485864125796534 0.052094186587238869 0.052040787639752811 -0.053429004563140051 0.052042799644164764 0.052042329417578616 0.052043000191919576 -0.053430106877009387 0.052043004082748916 0.052042909902572224 0.052043000226039339 0.052042999024499027 0.052043022010801701 0.052043008079756696 -0.053430255882723099 0.052043000259185138 0.052043000178466227 0.052042996454228746 0.052042999603344575 0.052043000259184929 0.052043000096195273
leaf_weight=0.90515899658203014 0.12144550308585067 8.230811294168225 0.4525794982910164 0.24920924007892686 0.11307344958185694 0.2436510697007187 0.11562171205878335 0.1130319759249695 0.24023913219571191 0.18855765834450622 0.11311062797904015 0.33943463489413161 0.18022990226745683 0.1508602797985058 0.11314021423459053 5.6195287704467773 0.15085983276367176 0.2262917160987854 0.11314526200294495 1.5019727870821959 0.33943462371826161 0.18857479840517022 0.15085984021425247 0.15085988119244576 0.15085983276367188 0.98058899119496346
leaf_count=24 3 137 12 4 3 4 3 3 4 5 3 9 3 4 3 149 4 6 3 25 9 5 4 4 4 26
internal_value=-0.000323638 -0.0403434 -0.0491338 -0.0534349 0.0520457 -0.0534315 0.0520436 0.0520429 -0.0534302 0.052043 0.0520416 0.052043 -0.0534303 0.052043 0.052043 0.052043 0.052043 0.052043 0.052043 -0.0534303 0.052043 0.052043 0.052043 0.052043 0.052043 0.052043
internal_weight=21.4431 12.1547 11.0987 10.6461 9.28842 10.3969 9.16697 9.05135 10.1533 8.82521 0.226143 8.71214 9.91301 8.52358 0.452575 8.071 1.81032 0.490297 0.264005 9.73278 6.26068 1.32002 0.641154 0.30172 1.05602 1.16916
internal_count=463 217 189 177 246 173 243 240 169 234 6 231 165 226 12 214 48 13 7 162 166 35 17 8 28 31
is_linear=0
shrinkage=0.05


Tree=46
num_leaves=31
num_cat=0
split_feature=15 11 13 14 1 20 0 2 20 20 2 20 14 2 0 20 0 14 0 0 2 20 2 0 2 20 20 20 10 20
split_gain=17.0553 3.74383 1.83156 9.96625e-07 8.6052e-07 4.85048e-07 2.25608e-07 9.9826e-08 1.7063e-08 1.1137e-07 1.34179e-10 6.74752e-11 6.26947e-11 6.29277e-11 1.81561e-11 5.03009e-12 7.3086e-13 1.77636e-14 1.77636e-15 1.77636e-15 1.77636e-15 1.33227e-15 1.44329e-15 8.88178e-16 8.88178e-16 1.77636e-15 8.88178e-16 8.88178e-16 2.22045e-16 1.66533e-16
threshold=1.0000000180025095e-35 1.0000000180025095e-35 1.0000000180025095e-35 16.500000000000004 20.500000000000004 3.9076319663487209 68.500000000000014 20.500000000000004 4.1164969561701001 4.1056603206854883 15.500000000000002 4.5042510431698473 13.500000000000002 12.500000000000002 34.500000000000007 4.0440288220388476 44.500000000000007 15.500000000000002 58.500000000000007 33.500000000000007 13.500000000000002 4.3112605790924281 6.5000000000000009 54.500000000000007 14.500000000000002 4.6427228190862371 4.2571289865530533 4.0800617316753529 1.0000000180025095e-35 4.0748377739644939
decision_type=2 2 2 2 2 2 2 2 2 2 2 2 2 2 2 2 2 2 2 2 2 2 2 2 2 2 2 2 2 2
left_child=1 -1 3 12 -5 -2 -6 8 9 15 14 -12 18 -14 -10 -7 29 -16 19 28 21 -21 -23 24 25 26 -19 -22 -3 -17
right_child=5 2 -4 4 6 7 -8 -9 10 -11 11 -13 13 -15 17 16 -18 23 -20 20 27 22 -24 -25 -26 -27 -28 -29 -30 -31
leaf_value=0.051939397664069055 0.052044854952962752 -0.053251788314967199 0.051939397664068847 -0.053390146844578185 -0.05325178831496679 0.051939023557520281 -0.053321493482670415 0.051987930069038048 0.051938830767715341 0.051993602541584021 0.051938922558135182 0.051937267449043589 -0.053250604052858211 -0.053251715337700505 0.051939411670701034 0.051939395534785174 0.051939263636800938 0.051939397624743991 -0.053251788238137657 -0.053251788247919846 -0.053251788314966866 -0.053251793243800576 -0.053251788314966755 0.051939397540663047 0.051939402198977094 0.051939397664068937 0.051939397659283459 -0.053251788314966936 -0.05325178831496663 0.051939397664068854
leaf_weight=1.0064692348241795 0.11310410127043624 0.97470374777912538 0.43134395778179246 0.237862668931485 0.34401308745145798 0.14375584200024238 0.17520097643136978 0.11020379140973169 0.14374246820807446 0.11048126965761185 0.14374892041087139 0.10772640630602837 0.22926877811551172 0.28667197749018669 0.21567387878894795 0.10783601179718971 0.1437724307179451 1.6534852050244806 0.63069067522883493 2.2360850572586064 0.57335514575242985 0.28667799755930889 0.28667757287621498 0.61107083782553662 0.10783631354570378 0.35945329815149296 4.5291115678846836 3.7268084473907948 0.17200654372572899 0.25161730870604515
leaf_count=28 3 17 12 4 6 4 3 3 4 3 4 3 4 5 6 3 4 46 11 39 10 5 5 17 3 10 126 65 3 7
internal_value=-0.000321876 -0.0402148 -0.048972 -0.0532562 -0.0533114 0.051942 -0.0532753 0.0519406 0.05194 0.0519472 0.0519393 0.0519382 -0.0532518 -0.0532512 0.0519394 0.0519393 0.0519394 0.0519394 -0.0532518 -0.0532518 -0.0532518 -0.0532518 -0.0532518 0.0519394 0.0519394 0.0519394 0.0519394 -0.0532518 -0.0532518 0.0519394
internal_weight=20.4505 11.5978 10.5914 10.16 0.757077 8.85262 0.519214 8.73952 8.62931 0.757463 7.87185 0.251475 9.40295 0.515941 7.62037 0.646982 0.503226 7.47663 8.88701 8.25631 7.1096 2.80944 0.573356 7.26096 6.64989 6.54205 6.1826 4.30016 1.14671 0.359453
internal_count=463 217 189 177 13 246 9 243 240 21 219 7 164 9 212 18 14 208 155 144 124 49 10 202 185 182 172 75 20 10
is_linear=0
shrinkage=0.05


Tree=47
num_leaves=25
num_cat=0
split_feature=15 11 13 19 19 1 27 2 19 1 0 0 20 20 20 20 14 19 20 14 19 1 0 0
split_gain=16.1838 3.55045 1.73669 1.48943e-06 9.34907e-07 2.14369e-07 8.80497e-08 1.36689e-10 1.06196e-10 7.06475e-11 4.28944e-11 2.66986e-12 2.23821e-12 2.02505e-13 1.97398e-13 5.4845e-14 8.88178e-15 3.55271e-15 2.55351e-15 8.88178e-16 8.88178e-16 2.22045e-16 5.55112e-17 5.55112e-17
threshold=1.0000000180025095e-35 1.0000000180025095e-35 1.0000000180025095e-35 3.6871501186864273 3.4120590421700903 21.500000000000004 4.5000000000000009 16.500000000000004 3.5124494855594821 15.500000000000002 54.500000000000007 65.000000000000014 4.0683570087824092 4.1164969561701001 4.0994153236031279 4.0725274576086425 15.500000000000002 3.4538209655306948 4.3112605790924281 25.500000000000004 3.8808545565197288 13.500000000000002 52.500000000000007 42.500000000000007
decision_type=2 2 2 2 2 2 2 2 2 2 2 2 2 2 2 2 2 2 2 2 2 2 2 2
left_child=1 21 3 5 -2 8 7 9 11 -6 -9 17 -11 14 15 -14 -15 -3 -19 20 -18 -1 -4 -17
right_child=4 2 22 -5 6 -7 -8 10 -10 12 -12 -13 13 16 -16 23 19 18 -20 -21 -22 -23 -24 -25
leaf_value=0.051841239608611048 0.051988264675047351 -0.05308315371997871 0.051841239608610749 -0.053213893596258548 0.051839913745282899 -0.053132854692028997 0.051887256028628731 0.05183918764612741 -0.053082035283664057 0.051841054917449114 0.051840632772360055 -0.053082950373217003 0.051841195889360973 0.051841250577052411 0.051841155445688472 0.051841239608610548 0.051841239241473908 -0.05308315341591581 -0.053083159361535154 0.051841239474427994 0.051841239608611013 0.051841239608610923 0.051841239608610548 0.051841239508492745
leaf_weight=0.54808580875396629 0.11034553498029609 8.0968000404536635 0.30829826742410738 0.22699244320392686 0.10269750282167844 0.22189585864543993 0.10502886772155839 0.102659862488509 0.21876226738095361 0.17126121744513501 0.10273490101099014 0.16411466896534044 0.10276397690176953 0.20553398877382267 0.13701587915420532 0.10276608914136887 3.9736231081187725 0.4923729635775097 0.27354094758629799 1.5414913482964037 1.5414913371205328 0.41106435656547546 0.10276608914136887 0.13702145963907242
leaf_count=16 3 148 9 4 3 4 3 3 4 5 3 3 3 6 4 3 116 9 5 45 45 12 3 4
internal_value=-0.000320212 -0.0400933 -0.0488191 -0.0530873 0.0518437 -0.0530843 0.0518418 0.0518412 -0.0530831 0.0518412 0.0518399 -0.0530832 0.0518412 0.0518412 0.0518412 0.0518412 0.0518412 -0.0530832 -0.0530832 0.0518412 0.0518412 0.0518412 0.0518412 0.0518412
internal_weight=19.5011 11.0647 10.1055 9.69448 8.43644 9.46749 8.32609 8.22106 9.24559 8.01567 0.205395 9.02683 7.91297 7.74171 0.479567 0.342552 7.26214 8.86271 0.765914 7.05661 5.51511 0.95915 0.411064 0.239788
internal_count=463 217 189 177 246 173 243 240 169 234 6 165 231 226 14 10 212 162 14 206 161 28 12 7
is_linear=0
shrinkage=0.05


Tree=48
num_leaves=31
num_cat=0
split_feature=15 11 13 14 1 20 0 2 20 20 2 20 14 2 0 26 0 14 2 0 0 0 2 20 20 20 20 20 20 0
split_gain=15.3586 3.3676 1.647 7.24824e-07 6.24611e-07 3.55266e-07 1.64463e-07 7.33502e-08 1.25158e-08 8.1577e-08 1.01768e-10 5.33548e-11 5.14966e-11 4.04584e-11 1.30713e-11 3.71447e-12 4.81781e-13 2.57572e-14 7.10543e-15 2.66454e-15 1.77636e-15 1.77636e-15 8.88178e-16 8.88178e-16 8.88178e-16 8.88178e-16 5.55112e-16 3.33067e-16 2.22045e-16 1.11022e-16
threshold=1.0000000180025095e-35 1.0000000180025095e-35 1.0000000180025095e-35 16.500000000000004 20.500000000000004 3.9076319663487209 68.500000000000014 20.500000000000004 4.1164969561701001 4.1056603206854883 15.500000000000002 4.5042510431698473 13.500000000000002 12.500000000000002 34.500000000000007 1.0000000180025095e-35 44.500000000000007 15.500000000000002 14.500000000000002 59.500000000000007 59.500000000000007 50.500000000000007 4.5000000000000009 4.5638645400014672 4.5233030628586581 4.1796379367040863 4.0784294106257617 4.1276782447299967 4.6381231003929164 48.500000000000007
decision_type=2 2 2 2 2 2 2 2 2 2 2 2 2 2 2 2 2 2 2 2 2 2 2 2 2 2 2 2 2 2
left_child=1 29 3 12 -5 -2 -6 8 9 15 14 -12 20 -14 -10 -7 26 -16 19 22 21 -3 -19 24 25 27 -17 -24 -25 -1
right_child=5 2 -4 4 6 7 -8 -9 10 -11 11 -13 13 -15 17 16 -18 18 -20 -21 -22 -23 23 28 -26 -27 -28 -29 -30 -31
leaf_value=0.051748210327567747 0.051842912585568307 -0.052923757258203252 0.051748210327567518 -0.053047341870284703 -0.052923757034159004 0.051747878077540221 -0.052986131431063878 0.051791863551417898 0.051747706257720433 0.051796895312828585 0.05174779064941492 0.051746246178601352 -0.052922699715943725 -0.052923633654167239 0.051748229202508926 0.051748215485212072 0.051748099314248744 0.051748210327567573 0.051748222259046531 0.051748218374966383 -0.052923756686350659 -0.05292375703415915 0.051748212981209088 0.051748211144072846 0.051748210327567629 0.051748210409851204 0.051748211278620442 0.051748210327567656 0.051748210327567629 0.051748210327567351
leaf_weight=0.78340333700179954 0.10272939875721743 5.8977795913815463 0.39170166850090105 0.21658268570900041 0.31315641850233078 0.13054398074746121 0.1595112569630146 0.10008748248219479 0.13053176924586285 0.10033763572573662 0.13053772225975979 0.097822550684213638 0.20870377868414003 0.26095392554998398 0.19585255533456791 0.13056726381182671 0.13055910542607307 0.26113444566726673 0.13056761026382435 0.097925499081611522 0.31315645575523365 1.8789385110139845 0.13056723773479451 0.42434348911046971 0.3590598627924918 4.2107929512858391 0.19585083425045013 0.55491069704294205 0.42434347420930862 0.13056722283363342
leaf_count=24 3 113 12 4 6 4 3 3 4 3 4 3 4 5 6 4 4 8 4 3 6 36 4 13 11 129 6 17 13 4
internal_value=-0.000318644 -0.0399784 -0.0486746 -0.0529277 -0.052977 0.0517505 -0.0529448 0.0517493 0.0517488 0.0517552 0.0517482 0.0517471 -0.0529237 -0.0529232 0.0517482 0.0517481 0.0517482 0.0517482 0.0517482 0.0517482 -0.0529238 -0.0529238 0.0517482 0.0517482 0.0517482 0.0517482 0.0517482 0.0517482 0.0517482 0.0517482
internal_weight=18.5935 10.5545 9.64048 9.24878 0.68925 8.03907 0.472668 7.93634 7.83625 0.687859 7.14839 0.22836 8.55953 0.469658 6.92003 0.587521 0.456977 6.7895 6.59365 6.46308 8.08987 7.77672 6.36515 6.10402 5.25533 4.89627 0.326418 0.685478 0.848687 0.913971
internal_count=463 217 189 177 13 246 9 243 240 21 219 7 164 9 212 18 14 208 202 198 155 149 195 187 161 150 10 21 26 28
is_linear=0
shrinkage=0.05


Tree=49
num_leaves=31
num_cat=0
split_feature=19 11 26 2 4 25 27 19 2 4 20 20 20 0 20 19 20 0 14 19 20 0 0 20 0 19 2 0 2 0
split_gain=12.1142 4.62859 1.71337 0.878044 5.29494e-07 1.56289e-07 6.45938e-08 7.66249e-11 6.34417e-11 2.07545e-11 2.56477e-11 2.35814e-11 1.19063e-11 3.39817e-12 4.69846e-13 3.24296e-13 2.91211e-13 2.79582e-13 1.15463e-14 5.32907e-15 2.22045e-15 1.77636e-15 1.77636e-15 8.88178e-16 4.996e-16 3.33067e-16 1.66533e-16 1.11022e-16 1.11022e-16 8.32667e-17
threshold=3.5375747455704984 1.0000000180025095e-35 1.0000000180025095e-35 23.500000000000004 3.5000000000000004 1.0000000180025095e-35 4.5000000000000009 3.5124494855594821 16.500000000000004 2.5000000000000004 4.2503116366352112 4.2141585496997216 4.0065933284421558 65.000000000000014 4.1164969561701001 3.7954355380671996 4.0994153236031279 47.500000000000007 15.500000000000002 3.4571270092919519 4.2649345267616612 57.500000000000007 36.500000000000007 4.3040008222874588 34.500000000000007 3.2646213021034698 14.500000000000002 48.500000000000007 24.500000000000004 38.500000000000007
decision_type=2 2 2 2 2 2 2 2 2 2 2 2 2 2 2 2 2 2 2 2 2 2 2 2 2 2 2 2 2 2
left_child=1 9 5 6 -4 7 8 13 14 10 11 12 -1 19 15 29 17 -17 -16 21 -21 23 24 -3 -20 28 -12 -11 -23 -2
right_child=3 2 4 -5 -6 -7 -8 -9 -10 27 26 -13 -14 -15 18 16 -18 -19 22 20 -22 25 -24 -25 -26 -27 -28 -29 -30 -31
leaf_value=0.051659252648072133 0.051660050679159519 -0.052773042174269473 0.05179220555902006 -0.052889901086281943 0.051660051900015949 -0.052817525186216109 0.051701451910942567 -0.052772045541601822 0.05165902680234296 0.051660051900016039 0.051660050154236817 0.051658678352027393 0.051660051510262199 -0.052772801958021726 0.051660064235436176 0.051660051027126189 0.051659896378423144 0.051659936527431276 0.051660047215431132 -0.052773045269875973 -0.052773052888940353 -0.0527730420693035 0.051660051756811001 -0.05277304282462645 0.051660051900015783 -0.052773044701864003 0.051660052917974188 0.051660051833736342 -0.052773042069303527 0.05166004873985508
leaf_weight=0.093262664973734699 0.12440603040158649 5.0283327288925594 0.10021897777915079 0.20661760121583927 0.31101498752832413 0.2019509747624405 0.095369689166545757 0.19907761365175325 0.15541782416403283 0.65313147380948067 0.12440601363778114 0.093232350423932076 0.093304630368947983 0.14934476464986879 0.18661063537001599 0.1244060043245554 0.093296574428677559 0.093298694118857384 0.093304591253399738 0.24892734363675106 0.14935677498579025 0.19914188981056202 5.9403867181390524 2.0412043519318104 0.15550749376416206 0.149356409907341 0.093304775655269623 0.18660899996757507 0.24892736226320267 0.093304505571722984
leaf_count=3 4 101 3 4 10 4 3 4 5 21 4 3 3 3 6 4 3 3 3 5 3 4 191 41 5 3 3 6 5 3
internal_value=-0.00031716 -0.0351542 -0.0480149 0.0487263 0.0516923 -0.0527741 0.0516606 -0.052773 0.05166 0.0516599 0.0516596 0.0516593 0.0516597 -0.052773 0.05166 0.05166 0.05166 0.05166 0.0516601 -0.052773 -0.052773 -0.052773 0.0516601 -0.052773 0.0516601 -0.052773 0.0516601 0.0516601 -0.052773 0.05166
internal_weight=17.726 10.3641 9.02685 7.36193 0.411234 8.61562 7.15531 8.41367 7.05994 1.33725 0.49751 0.2798 0.186567 8.21459 6.90452 0.528712 0.311001 0.217705 6.37581 8.06525 0.398284 7.66696 6.1892 7.06954 0.248812 0.597426 0.217711 0.83974 0.448069 0.217711
internal_count=463 229 186 234 13 173 230 169 227 43 16 9 6 165 222 17 10 7 205 162 8 154 199 142 8 12 7 27 9 7
is_linear=0
shrinkage=0.05


Tree=50
num_leaves=28
num_cat=0
split_feature=15 18 24 1 19 19 0 27 1 19 2 1 20 19 20 0 14 2 2 19 0 2 0 0 0 0 20
split_gain=13.3345 2.35254 1.08555 1.25408 1.13609e-06 5.87233e-07 1.33043e-07 5.54456e-08 1.46863e-10 6.47082e-11 3.691e-11 8.54161e-12 9.39693e-13 1.33893e-12 3.22853e-13 1.00919e-13 8.88178e-15 4.88498e-15 1.77636e-15 1.77636e-15 8.88178e-16 8.88178e-16 2.22045e-16 1.11022e-16 1.11022e-16 5.55112e-17 5.55112e-17
threshold=1.0000000180025095e-35 1.0000000180025095e-35 1.0000000180025095e-35 26.500000000000004 3.6871501186864273 3.4120590421700903 68.500000000000014 4.5000000000000009 15.500000000000002 3.5124494855594821 16.500000000000004 21.500000000000004 4.1164969561701001 3.5629700530598991 4.0994153236031279 43.500000000000007 15.500000000000002 6.5000000000000009 14.500000000000002 3.4571270092919519 50.500000000000007 9.5000000000000018 56.500000000000007 48.500000000000007 51.500000000000007 51.500000000000007 4.6814016690034217
decision_type=2 2 2 2 2 2 2 2 2 2 2 2 2 2 2 2 2 2 2 2 2 2 2 2 2 2 2
left_child=1 4 23 17 6 -2 9 8 -7 11 12 19 13 -10 15 -15 -14 -4 20 21 -18 -1 -22 -3 -19 -5 -24
right_child=5 2 3 25 -6 7 -8 -9 10 -11 -12 -13 16 14 -16 -17 18 24 -20 -21 22 -23 26 -25 -26 -27 -28
leaf_value=-0.052630494600331583 0.051701744590148473 0.051576469786164425 -0.05263050368662972 0.051576469869406442 -0.052740876863859858 0.051574858871705744 -0.052672599801201425 0.051615727520520141 0.051576226682965576 -0.052629550146674003 0.051575438257718077 -0.052630103359537765 0.051576481040739676 0.051576469418962337 0.051576362171676528 0.051576415541048207 0.051576469781540249 -0.052630494600331534 0.051576475961303936 -0.052630498729922016 0.051576469660580194 -0.052630494759879458 0.051576469947304263 0.05157646986940604 -0.052630494600331472 0.051576469869406186 0.051576468194112171
leaf_weight=2.089226961135866 0.095493827015160515 0.74078486487269435 0.18993005901575066 0.29631393030285835 0.24634007737040509 0.14801496639847744 0.19261861220002163 0.090865319594740757 0.088881423696875461 0.1898682415485381 0.088839596137404331 0.14242811501026142 0.17778993397951115 0.32594541646540165 0.11851801350712776 0.11852191761136055 4.5928660575300455 0.47482430934906006 0.11852617748081673 0.18992977961897839 0.9482045844197271 4.1784539520740509 0.17778840847313404 0.088894179090857506 0.28489458560943604 0.11852557212114334 0.088894214481115341
leaf_count=44 3 25 4 10 5 5 4 3 3 4 3 3 6 11 4 4 155 10 4 4 32 88 6 3 6 4 3
internal_value=0.000241167 -0.0388714 0.00647507 -0.0209489 -0.0526353 0.0515786 -0.0526316 0.0515769 0.0515764 -0.0526305 0.0515765 -0.0526305 0.0515765 0.0515764 0.0515764 0.0515765 0.0515765 -0.0526305 0.0515765 -0.0526305 0.0515765 -0.0526305 0.0515765 0.0515765 -0.0526305 0.0515765 0.0515765
internal_weight=16.6022 9.42303 2.19417 1.36449 7.22887 7.17915 6.98253 7.08366 6.99279 6.78991 6.84478 6.60004 6.75594 0.651867 0.562985 0.444467 6.10407 0.949649 5.92628 6.45761 5.80775 6.26768 1.21489 0.829679 0.759719 0.41484 0.266683
internal_count=456 214 62 34 152 242 147 239 236 143 231 139 228 22 19 15 206 20 200 136 196 132 41 28 16 14 9
is_linear=0
shrinkage=0.05


Tree=51
num_leaves=29
num_cat=0
split_feature=15 18 4 4 19 19 0 27 1 19 2 1 20 19 20 2 14 2 2 19 0 2 6 6 6 20 0 19
split_gain=12.6591 2.23127 1.36275 0.858231 9.69942e-07 5.02942e-07 1.13608e-07 4.75067e-08 1.25663e-10 5.51816e-11 3.15632e-11 7.3106e-12 7.73603e-13 1.1191e-12 2.88547e-13 8.29892e-14 1.86517e-14 3.66374e-15 2.66454e-15 1.77636e-15 8.88178e-16 8.88178e-16 4.44089e-16 4.44089e-16 2.22045e-16 1.11022e-16 5.55112e-17 2.77556e-17
threshold=1.0000000180025095e-35 1.0000000180025095e-35 2.5000000000000004 1.5000000000000002 3.6871501186864273 3.4120590421700903 68.500000000000014 4.5000000000000009 15.500000000000002 3.5124494855594821 16.500000000000004 21.500000000000004 4.1164969561701001 3.5629700530598991 4.0994153236031279 12.500000000000002 15.500000000000002 6.5000000000000009 14.500000000000002 3.1088616749441487 31.500000000000004 4.5000000000000009 3.5000000000000004 2.5000000000000004 4.5000000000000009 4.0784294106257617 38.500000000000007 3.6939811703390388
decision_type=2 2 2 2 2 2 2 2 2 2 2 2 2 2 2 2 2 2 2 2 2 2 2 2 2 2 2 2
left_child=1 4 3 26 6 -2 9 8 -7 11 12 19 13 -10 15 25 -14 -5 21 20 -1 -18 23 -21 -24 27 -3 -15
right_child=5 2 -4 17 -6 7 -8 -9 10 -11 -12 -13 16 14 -16 -17 18 -19 -20 22 -22 -23 24 -25 -26 -27 -28 -29
leaf_value=-0.052495631114249645 0.05161599619575228 0.051497221262331028 0.051497220931492352 -0.052495638989379381 -0.052600069026626999 0.051495694668548267 -0.052535473939538474 0.051534451418523253 0.051496993974750174 -0.052494737929973272 0.051496244063766232 -0.052495260452922625 0.051497237386055432 0.051497221741360115 0.051497118554071068 0.051497171808829227 0.051497220931492199 -0.052495631114249465 0.051497229746384758 -0.052495631114249292 -0.052495631114249534 0.051497220990225273 -0.052495631114249409 -0.052495634097712157 -0.052495631114249486 0.051497220931491949 0.05149722093149204 0.051497223275712101
leaf_weight=0.45279789716005137 0.090983629226685347 0.11291416734457038 0.93154157325625409 0.18111948296427727 0.2349373623728751 0.1410071738064288 0.18369065597653378 0.086566640064120182 0.084673427045345195 0.18106036260724057 0.084633516147732624 0.13582102954387654 0.16937269270420063 0.11291419342160225 0.11290692165493965 0.11291061900556087 0.22582826018333424 0.72447663545608521 0.11291470937430848 0.18111915886402119 3.9393417052924633 5.3069643415510654 0.31695852801203706 0.36223840713500977 0.90559579432010651 0.11291413009166718 0.14114266261458397 0.084685651585459709
leaf_count=10 3 4 33 4 5 5 4 3 3 4 3 3 6 4 4 4 8 16 4 4 87 188 7 8 20 4 5 3
internal_value=0.000241349 -0.0387766 0.0064629 -0.0297129 -0.0525002 0.0514992 -0.0524967 0.0514976 0.0514972 -0.0524956 0.0514972 -0.0524956 0.0514972 0.0514972 0.0514972 0.0514972 0.0514972 -0.0524956 0.0514972 -0.0524956 -0.0524956 0.0514972 -0.0524956 -0.0524956 -0.0524956 0.0514972 0.0514972 0.0514972
internal_weight=15.824 8.98476 2.09119 1.15965 6.89356 6.83928 6.65862 6.74829 6.66173 6.47493 6.52072 6.29387 6.43608 0.621005 0.536332 0.423425 5.81508 0.905596 5.64571 6.15805 4.39214 5.53279 1.76591 0.543358 1.22255 0.310514 0.254057 0.1976
internal_count=456 214 62 29 152 242 147 239 236 143 231 139 228 22 19 15 206 20 200 136 97 196 39 12 27 11 9 7
is_linear=0
shrinkage=0.05


Tree=52
num_leaves=27
num_cat=0
split_feature=15 11 26 19 19 0 27 1 19 2 1 20 19 20 2 14 19 2 20 0 0 0 2 20 2 1
split_gain=12.0191 2.78638 1.43876 8.33869e-07 4.3087e-07 9.73437e-08 4.07116e-08 1.07597e-10 4.72982e-11 2.7053e-11 6.32738e-12 6.56364e-13 9.77662e-13 2.42029e-13 6.81677e-14 7.99361e-15 4.44089e-15 2.66454e-15 1.77636e-15 8.88178e-16 8.88178e-16 4.44089e-16 4.44089e-16 1.66533e-16 1.11022e-16 2.77556e-17
threshold=1.0000000180025095e-35 1.0000000180025095e-35 1.0000000180025095e-35 3.6871501186864273 3.4120590421700903 68.500000000000014 4.5000000000000009 15.500000000000002 3.5124494855594821 16.500000000000004 21.500000000000004 4.1164969561701001 3.5629700530598991 4.0994153236031279 12.500000000000002 15.500000000000002 3.4571270092919519 14.500000000000002 4.2781389507684739 45.500000000000007 34.500000000000007 57.500000000000007 7.5000000000000009 4.055087277381384 26.500000000000004 27.500000000000004
decision_type=2 2 2 2 2 2 2 2 2 2 2 2 2 2 2 2 2 2 2 2 2 2 2 2 2 2
left_child=1 -1 3 5 -2 8 7 -6 10 11 16 12 -9 14 23 -13 19 20 -18 -3 -17 22 -21 -14 -23 -25
right_child=4 2 -4 -5 6 -7 -8 9 -10 -11 -12 15 13 -15 -16 17 18 -19 -20 21 -22 24 -24 25 -26 -27
leaf_value=0.051422069805487816 0.051534702219631037 -0.052368000703948661 0.051422069750596502 -0.052466840536010639 0.051420622542366047 -0.05240570954717029 0.051457381484177833 0.051421853027411125 -0.052367156421728879 0.051421142942151311 -0.052367648166732145 0.051422081385941766 0.051422072155108411 0.051421973687979065 0.05142202402694375 0.051422068273019622 -0.052368003492302063 0.051422077205440411 -0.052368010900525425 -0.052368000658533448 0.051422069757943493 -0.052368000658534031 -0.052368000816037152 0.051422069405828011 -0.052368000658533857 0.051422069750595989
leaf_weight=0.77981188148260105 0.08667938411235887 3.7129459455609304 0.34957082755863655 0.22403248026967038 0.13432105630636204 0.1751536838710307 0.082464952021837123 0.080658579245209583 0.17263895645737637 0.080620503053069004 0.12950383499264706 0.1613418124616145 0.10756033472716808 0.10755337402224541 0.10755690187215805 0.10756036639213551 0.21586892753839482 0.10756080411374558 0.12952175363898277 0.12952136993408281 5.1628923267126083 0.34539031982421864 2.0291681513190269 0.10756028071045876 0.17269515991210938 0.08067019097507
leaf_count=29 3 86 13 5 5 4 3 3 4 3 3 6 4 4 4 4 5 4 3 3 192 8 47 4 4 3
internal_value=0.00024152 -0.0386869 -0.0477118 -0.0523718 0.051424 -0.0523689 0.0514225 0.051422 -0.052368 0.0514221 -0.052368 0.0514221 0.051422 0.051422 0.0514221 0.0514221 -0.052368 0.0514221 -0.052368 -0.052368 0.0514221 -0.052368 -0.052368 0.0514221 -0.052368 0.0514221
internal_weight=15.0808 8.56582 7.78601 7.43644 6.515 7.21241 6.42832 6.34586 7.03725 6.21154 6.86462 6.13091 0.59156 0.510901 0.403348 5.53936 6.73511 5.37801 0.345391 6.38972 5.27045 2.67678 2.15869 0.295791 0.518085 0.18823
internal_count=456 214 185 172 242 167 239 236 163 231 159 228 22 19 15 206 156 200 8 148 196 62 50 11 12 7
is_linear=0
shrinkage=0.05


Tree=53
num_leaves=28
num_cat=0
split_feature=15 11 13 14 1 20 10 27 20 0 1 14 2 2 1 20 0 20 6 14 2 0 0 0 0 0 0
split_gain=11.4126 2.64467 1.36543 4.22179e-07 3.26611e-07 1.63642e-07 7.64585e-08 3.38841e-08 4.98369e-09 2.76406e-08 9.74811e-11 2.42633e-11 2.35429e-11 1.82613e-11 3.03818e-12 2.62412e-12 2.00306e-12 4.81226e-13 3.71259e-13 1.06581e-14 2.66454e-15 8.88178e-16 8.88178e-16 1.11022e-16 5.55112e-17 5.55112e-17 2.77556e-17
threshold=1.0000000180025095e-35 1.0000000180025095e-35 1.0000000180025095e-35 16.500000000000004 20.500000000000004 3.9076319663487209 1.0000000180025095e-35 4.5000000000000009 4.1164969561701001 44.500000000000007 15.500000000000002 13.500000000000002 16.500000000000004 12.500000000000002 21.500000000000004 4.0065933284421558 60.500000000000007 4.1056603206854883 6.5000000000000009 15.500000000000002 14.500000000000002 54.500000000000007 35.500000000000007 49.500000000000007 48.500000000000007 41.500000000000007 46.500000000000007
decision_type=2 2 2 2 2 2 2 2 2 2 2 2 2 2 2 2 2 2 2 2 2 2 2 2 2 2 2
left_child=1 23 3 11 -5 -2 16 8 9 15 -10 18 19 -13 -15 -7 -6 25 21 26 22 -3 -21 -1 -4 -17 -12
right_child=5 2 24 4 6 7 -8 -9 10 -11 12 13 -14 14 -16 17 -18 -19 -20 20 -22 -23 -24 -25 -26 -27 -28
leaf_value=0.051350793036163966 0.0514233562615099 -0.052247184741468805 0.051350792964320768 -0.052340749143179391 -0.052247184452100415 0.051350451316288681 -0.052294925864171643 0.051384290909142066 0.051348986199705932 0.051378952507292734 0.051350806432552278 -0.052246383262243505 0.051349911779856497 -0.052247184045333718 -0.052246855941395935 0.051350792768106529 -0.05224689964667778 0.051350654725041724 -0.052247097061350584 0.051350794772996727 0.05135080058329973 -0.052247184452100796 0.051350793013725853 0.051350792964320394 0.051350792964320768 0.051350792497717235 0.051350806432552201
